_mail0_1.1 -0.090034 -0.198660 -0.094291 0.114176 0.060495 -0.167990 -0.018434 -0.304375 -0.035538 -0.228637 -0.069094 0.092824 0.009039 -0.086206 0.041092 -0.408972 -0.113513 -0.240645 0.180101 0.161564 0.161109 -0.114094 -0.198387 0.017390 -0.016073 -0.237934 -0.126195 -0.181216 0.257268 0.170536 0.050521 -0.289412 0.175215 -0.258596 -0.176180 -0.210569 -0.014112 -0.089505 0.090333 -0.026732 0.111697 0.390106 0.153392 0.013970 0.056781 0.064071 0.122602 -0.159183 -0.059130 -0.078639 -0.177978 -0.181811 -0.138932 -0.307932 0.001952 0.139871 -0.100059 -0.330963 0.378129 -0.098467 -0.146592 0.182294 0.010877 0.230603 -0.180551 -0.168234 0.016845 0.068094 0.170414 0.286678 0.204543 0.193730 -0.002381 0.315804 -0.239988 0.583160 -0.188985 -0.379760 -0.443741 0.152047 -0.222077 -0.083076 -0.162374 -0.053950 0.079604 0.581885 0.211083 0.231060 0.028291 -0.420551 0.187138 0.006739 -0.129223 0.171548 0.227000 -0.309789 0.053997 -0.182196 -0.091124 -0.020245 -0.049797 0.023269 0.157872 0.098242 -0.080251 -0.107958 0.326548 -0.106508 0.276342 -0.180387 -0.268081 0.123408 -0.222767 0.038517 0.022261 0.167578 0.012455 -0.376865 -0.170723 0.282474 -0.311883 0.443004 0.090608 -0.067910 0.230223 -0.518384 -0.053437 -0.086374 0.081879 -0.118133 -0.035178 0.047196 -0.497237 0.023830 -0.190200 0.077688 -0.161046 0.083370 0.089406 -0.070255 -0.051871 -0.017901 -0.138978 0.271106 0.231656 0.090009 -0.160033 0.004871 -0.167203 -0.220187 
_mail0_1.2 -0.224645 -0.211906 -0.040075 -0.086574 0.050164 0.206292 -0.219179 0.057855 -0.085396 -0.042177 -0.021340 -0.353696 0.007168 0.130940 0.028629 -0.482076 -0.042881 -0.252579 0.273465 0.205249 0.005486 -0.146626 -0.204576 0.189089 0.074457 -0.341738 -0.286447 -0.168435 0.092716 0.060262 0.039278 0.026181 0.202620 -0.497394 -0.149929 -0.109780 -0.053628 -0.259204 0.192504 -0.323530 0.342421 0.569555 0.317739 -0.191136 0.030811 -0.058102 -0.038887 -0.286513 0.033229 -0.048724 -0.230461 -0.130013 -0.104045 -0.010710 0.068782 -0.036023 -0.054001 -0.147728 0.405855 -0.358872 -0.070869 -0.085259 0.170220 0.251592 -0.271710 -0.159793 0.119930 0.268677 0.275236 0.501172 0.045871 0.115948 0.130477 0.110594 -0.360381 0.487604 -0.138274 -0.056802 -0.262345 0.146299 -0.104387 -0.110123 -0.264181 -0.092790 -0.067005 0.351183 -0.118360 0.186133 0.161767 -0.452545 -0.099116 0.126858 0.036174 0.340140 0.376652 -0.334446 0.291069 0.048945 -0.271327 -0.162191 -0.374122 0.271530 0.198853 -0.021074 -0.054622 -0.082633 0.222434 -0.066757 -0.051299 -0.174420 -0.088463 0.264140 -0.218322 -0.207785 -0.111230 -0.147285 -0.133700 -0.159058 0.038947 0.210290 -0.020597 0.120516 -0.110151 -0.085299 -0.060595 -0.418142 -0.109248 -0.030049 -0.017266 0.235298 -0.197742 0.177856 -0.083046 0.039450 -0.366116 0.029357 0.012068 0.019862 0.154750 -0.044096 -0.270897 -0.176081 -0.153060 0.306273 -0.124378 0.264886 -0.219510 0.175038 0.000107 -0.148878 
_mail0_1.3 -0.206314 -0.009978 0.048936 -0.076504 0.193093 -0.006574 -0.139102 0.134309 -0.043131 -0.005105 0.160916 -0.201394 0.066110 0.152425 0.030423 -0.068004 -0.390003 -0.039070 -0.060166 -0.057127 0.141388 -0.144569 -0.239308 -0.198928 -0.058613 -0.283138 0.134674 -0.104946 0.111876 0.006779 0.143247 -0.347644 0.283179 -0.233756 -0.116928 -0.097358 -0.070330 0.024028 0.099985 0.084572 0.286893 0.162944 0.177785 0.182034 0.116952 -0.072528 -0.068600 -0.039132 0.083205 -0.052119 -0.261756 0.092791 -0.240943 -0.092364 0.057606 0.013647 0.005577 -0.067700 0.387344 -0.260383 -0.061686 0.169781 0.261331 0.172377 -0.087929 -0.173318 0.086223 0.098021 0.164578 0.331543 0.359037 0.046957 -0.129185 0.105255 -0.294861 0.373021 0.051109 -0.043220 -0.095359 0.077146 0.053857 -0.244654 -0.274323 0.099728 -0.041388 0.304975 -0.031827 0.136141 0.403343 -0.380980 0.042835 -0.062394 -0.088516 0.321247 0.354256 -0.366015 0.368512 0.258661 -0.264003 0.035345 -0.221031 0.311147 0.264788 -0.151816 -0.063446 0.107855 0.205199 -0.098481 -0.038213 -0.118701 -0.175776 0.300365 -0.076967 -0.075256 -0.026760 -0.067468 -0.096116 -0.146365 -0.154233 0.368139 -0.147629 0.053807 -0.022539 0.047773 0.051375 -0.158544 -0.143737 -0.017212 0.159983 -0.052501 -0.218235 0.256453 -0.422257 -0.080536 -0.071815 0.179641 -0.032363 -0.269268 0.266853 -0.000597 -0.216613 0.070638 -0.197547 0.361920 -0.054389 0.494273 -0.382629 0.146075 0.200278 -0.210138 
_mail0_1.4 -0.156649 -0.058596 -0.038453 -0.024942 0.308078 0.006677 -0.118061 0.052444 -0.064075 -0.032274 0.204176 0.080949 0.086940 0.290696 0.165876 -0.156035 -0.301921 -0.251939 0.264678 -0.119092 -0.082681 -0.176389 -0.272687 -0.000009 -0.019414 -0.003665 0.115735 -0.313477 0.369075 0.079493 -0.132162 -0.356093 0.246304 -0.272221 -0.105659 -0.047997 0.142668 0.038347 0.224931 0.131928 0.122278 0.237532 0.026381 0.178336 0.043656 0.064837 -0.178542 0.031241 0.024166 -0.055581 -0.370065 0.112638 -0.364735 0.145474 -0.260902 0.046173 -0.126979 -0.012191 0.377581 -0.233990 -0.140154 0.184100 0.275987 0.119710 0.002642 -0.205141 0.248462 0.126877 0.230432 0.304266 0.311404 0.044451 -0.154678 0.183055 -0.455536 0.340517 -0.005263 -0.320201 -0.233105 0.048445 0.067572 -0.186001 -0.403143 0.240454 -0.133165 0.296228 -0.144978 0.177216 0.383846 -0.359194 -0.130726 0.089552 -0.417489 0.145236 0.430416 -0.125995 0.218569 0.496786 -0.372283 0.034727 -0.169797 0.344692 0.177761 -0.138723 -0.232614 0.123699 0.294206 -0.267830 -0.026128 -0.172470 -0.164261 0.149091 -0.060439 0.234486 0.096767 0.097980 -0.238600 0.066323 0.063798 0.409510 -0.012292 0.082384 -0.108060 0.196802 0.030077 -0.173142 -0.049700 0.015309 0.046578 -0.011277 -0.312955 0.118946 -0.594515 -0.031799 -0.218973 0.217433 -0.251919 -0.414167 0.474760 -0.170841 -0.104215 0.187057 -0.026897 0.362146 -0.028716 0.228529 -0.241120 0.094459 0.011546 -0.323884 
_mail0_1.5 -0.027573 -0.089669 0.252230 -0.129683 -0.002519 0.113844 -0.090354 0.063338 0.097793 -0.038593 0.200134 -0.293694 -0.136766 0.145083 -0.103581 -0.162110 -0.281363 -0.366911 0.283781 0.005901 0.150935 -0.359086 -0.091277 0.138924 -0.105423 -0.378112 -0.298504 -0.408501 -0.035450 0.205329 0.095244 -0.119434 0.400001 -0.250952 -0.185051 -0.365895 0.286090 -0.414426 0.096653 -0.117784 0.397876 0.400629 0.102395 0.076959 0.186151 -0.047885 -0.131324 -0.077660 -0.269703 0.195645 -0.268212 -0.009263 -0.093536 0.037827 0.137647 -0.033958 -0.037087 -0.150401 0.391509 -0.221682 -0.113021 -0.023566 0.181794 0.197127 -0.476378 -0.138153 -0.142743 0.344248 0.287463 0.507487 0.123128 0.105829 0.066097 0.144193 -0.252429 0.726261 -0.114655 -0.182196 -0.307479 0.256444 -0.230068 -0.239336 -0.130430 0.075746 -0.070502 0.535731 -0.108671 0.252177 0.489104 -0.332218 -0.229231 0.112856 -0.301751 0.303978 0.617536 -0.095571 0.592995 0.491018 -0.343303 -0.020084 -0.172690 0.164698 0.265155 -0.152733 -0.226820 0.118322 0.381524 -0.246504 0.072697 -0.145226 -0.154408 0.145368 -0.123119 0.037876 -0.222284 0.016350 0.224367 -0.135077 -0.051774 0.079684 0.009650 -0.012464 -0.074722 0.107167 -0.001365 -0.079376 -0.603443 -0.105068 -0.186495 -0.030993 -0.263761 0.115940 -0.158245 0.259412 -0.287236 -0.043114 -0.041591 0.038436 0.204101 -0.122577 -0.349821 -0.018751 0.098757 0.437163 -0.141406 0.403555 0.003942 0.153605 -0.164784 0.059095 
_mail0_1.8 -0.311568 -0.192344 -0.044939 0.172848 0.087731 -0.175890 -0.134860 -0.023255 0.009699 -0.229618 0.244355 0.006184 0.050048 -0.007219 0.012249 -0.154544 -0.210783 -0.007863 0.033302 0.010896 0.014925 0.138066 -0.008448 0.084035 -0.081613 -0.350184 0.066054 -0.079412 -0.010037 0.121491 0.047256 -0.147861 0.136980 -0.166117 -0.111910 -0.060580 -0.127294 -0.088965 0.081053 0.125682 0.042349 0.166700 0.296133 0.069693 0.053807 0.184633 -0.017373 -0.097977 0.002538 0.069094 -0.004000 0.348684 -0.073397 -0.069965 0.124216 0.155936 0.030488 -0.281407 0.072295 -0.232109 0.044757 0.023799 -0.055190 -0.020687 -0.050902 -0.255552 0.018459 -0.061126 0.047706 0.306010 0.040552 -0.177020 0.069495 0.103149 -0.021142 0.158291 -0.124072 -0.080987 -0.202669 -0.043120 -0.049348 0.049425 -0.103296 -0.014988 -0.001186 -0.039896 0.165899 -0.109972 0.134249 -0.051628 -0.016986 -0.154821 0.059310 0.170038 0.259162 -0.175608 0.128039 -0.006221 0.018160 -0.082646 -0.088465 -0.004161 0.052373 -0.211667 -0.216523 0.017160 0.132422 0.262630 -0.050958 0.079891 0.197935 -0.069935 0.033108 -0.032870 -0.022725 0.022961 -0.053915 -0.280606 -0.256926 0.096304 -0.192008 0.120099 -0.164074 -0.285949 0.185594 -0.155697 -0.097307 -0.062727 -0.065416 -0.102592 -0.075639 0.003875 -0.117824 0.026969 -0.183176 0.028855 -0.093376 -0.139036 -0.025973 -0.026807 0.054643 0.074231 -0.041781 0.217737 -0.085291 0.096840 -0.044286 0.105888 -0.013756 -0.108860 
_mail0_2.2 -0.147403 0.221113 0.009857 0.303080 0.264254 -0.235303 -0.176050 -0.432366 -0.007704 0.077855 0.276888 -0.165880 0.064024 0.144374 0.048337 -0.272872 0.018301 -0.298179 0.352522 -0.095851 0.271034 -0.329895 -0.078477 -0.203346 -0.244193 -0.105071 -0.088284 -0.106960 0.104425 0.047715 -0.081367 -0.545391 0.555255 -0.154444 -0.230859 0.094949 0.507061 -0.271570 0.271704 0.130193 0.415746 0.270252 -0.217697 -0.100175 0.235323 -0.106887 0.162797 -0.047484 -0.267487 -0.131057 -0.054260 0.110106 -0.077081 0.050068 0.033820 0.111882 0.109838 0.379583 0.567588 -0.335189 0.082254 0.007764 -0.070119 -0.112902 0.134977 -0.070997 0.281901 0.213027 0.322571 0.570164 0.615346 0.049089 -0.288175 0.253448 -0.187527 0.233561 -0.140156 -0.155321 -0.014204 -0.009525 0.238423 -0.130129 -0.058984 0.071281 0.068465 0.381308 -0.175017 0.163795 0.376311 -0.648604 0.135390 0.006740 -0.286388 0.101876 0.592717 -0.335230 0.207872 0.247266 -0.265248 -0.142038 -0.020560 0.475397 0.310077 0.069241 -0.074525 0.211721 0.225107 -0.069549 -0.040058 -0.163791 -0.239759 0.028858 0.193065 0.143344 0.050772 -0.051443 -0.122270 -0.025085 -0.143273 0.158261 0.106293 0.420017 0.094293 0.341554 0.348019 -0.173989 -0.119193 -0.073052 0.005311 0.085707 -0.139009 0.331483 -0.155705 -0.012128 -0.257949 0.000548 0.085630 -0.419715 -0.094168 0.011708 -0.399213 -0.004227 -0.126081 0.533446 0.117423 0.258892 -0.120470 -0.091362 -0.213247 -0.074183 
_mail0_2.3 -0.170833 0.010745 0.042484 0.017205 -0.048753 -0.172238 -0.243974 -0.120376 -0.015418 -0.225316 -0.034533 -0.190596 0.149065 0.175293 0.158602 -0.004514 -0.148113 -0.076625 0.164269 0.041572 -0.065762 -0.052941 0.062863 0.082897 0.003040 -0.237800 0.164273 -0.039259 0.076732 0.253514 -0.009551 -0.507548 0.249941 -0.255048 -0.169995 -0.167062 0.070333 -0.105274 -0.001942 0.376517 0.240249 0.181868 0.034430 0.138218 0.077409 0.222601 0.151872 0.092293 -0.284302 -0.165616 -0.139196 0.093095 -0.310422 0.262323 -0.132584 0.252462 0.066231 0.188325 0.147579 -0.177708 -0.178990 0.176902 0.080369 0.105614 -0.137996 -0.120162 0.188615 0.018000 0.099003 0.208055 0.379655 -0.063472 -0.196817 0.012282 -0.202565 0.468957 -0.100767 -0.137765 -0.043558 -0.069980 -0.094509 -0.181814 -0.206790 0.022814 0.088443 0.150254 0.009376 0.143495 0.235760 -0.169154 -0.024763 0.107070 -0.248748 0.229488 0.324352 -0.035023 0.043574 0.064971 -0.214791 0.174644 -0.088419 -0.265211 0.003077 0.060876 -0.149464 -0.028026 0.059146 0.022065 -0.077734 -0.221460 0.095580 -0.138461 -0.124232 -0.029622 -0.088929 -0.181919 0.054657 -0.204396 -0.201373 0.277476 -0.080820 0.149305 -0.125250 0.140675 0.050619 -0.300917 -0.167616 0.091778 0.053002 -0.123645 -0.167504 0.044242 -0.344323 -0.080243 -0.041367 0.219087 -0.007384 -0.261220 0.101445 0.063497 -0.195733 -0.125939 -0.140290 0.056942 0.195645 0.232606 -0.185050 0.216125 0.129972 -0.012972 
_mail0_2.4 -0.455097 0.025717 0.170258 0.163543 0.219032 -0.072393 -0.142000 -0.071709 -0.186226 -0.062268 -0.066507 -0.058565 0.168274 0.097019 0.067565 -0.086090 -0.198010 0.109176 0.013302 -0.229632 0.216174 -0.117148 -0.124225 0.230833 -0.297659 -0.176080 0.057177 -0.147852 0.142077 0.086587 -0.023613 -0.385656 0.279091 -0.189807 -0.149581 -0.108671 0.266629 0.023500 -0.025158 0.178434 0.095874 0.400063 0.088556 -0.032507 0.095756 0.181120 -0.240030 0.010766 -0.245539 -0.285311 -0.216667 0.044513 -0.213739 -0.167973 -0.019820 0.273868 0.062153 0.016020 0.089397 -0.099455 -0.055908 -0.031062 0.151689 0.152017 -0.040385 0.065512 0.089222 -0.030810 0.049327 0.339756 0.235743 0.130401 -0.076302 0.116183 0.004406 0.270677 -0.098570 -0.325704 -0.154920 -0.061992 -0.180977 -0.163711 -0.255521 0.155086 -0.077717 -0.012419 0.072141 0.026468 0.171675 -0.449367 0.018330 0.029682 -0.343959 0.197785 0.546923 -0.090673 0.089160 -0.066665 -0.271983 -0.082738 0.013060 -0.091671 0.058724 -0.050731 -0.127036 0.072652 0.186014 -0.046293 0.341797 0.129895 -0.008909 0.055383 -0.032859 0.151434 -0.136890 -0.094530 -0.033602 -0.214111 -0.233971 0.214470 -0.198040 0.311689 -0.070050 0.198904 0.285241 -0.094448 -0.207381 0.078697 -0.038321 0.056066 -0.072286 0.062152 -0.522382 0.062805 -0.276560 -0.041465 0.231747 -0.099987 0.053912 0.247282 -0.128893 0.162234 -0.099032 0.198377 0.118478 0.030263 -0.038901 -0.042182 -0.011857 -0.132111 
_mail0_2.5 -0.205312 0.032936 -0.244165 0.195601 0.009640 -0.144636 -0.079525 -0.100122 0.196119 -0.147005 0.159191 -0.022170 0.161035 0.070507 -0.017928 -0.072271 -0.189734 0.030557 0.176650 -0.012553 0.019362 -0.217114 -0.145385 -0.055856 -0.389305 -0.190311 0.047022 0.059964 0.033932 0.286143 -0.021084 -0.343474 0.295535 -0.085303 -0.079632 0.015889 0.318105 -0.119800 0.108768 0.076609 -0.058057 0.086080 0.043734 0.083822 -0.068736 -0.100745 -0.023448 0.091172 -0.013448 -0.007844 -0.235662 0.034902 -0.094950 -0.130830 0.006760 0.015948 0.092237 -0.029691 0.258637 -0.125401 -0.088811 -0.091440 -0.143799 0.093329 -0.072898 -0.001823 0.179974 0.118234 0.345932 0.081427 0.386869 0.154738 0.144879 -0.033443 -0.270201 0.357221 -0.206383 -0.415933 -0.268754 0.059987 -0.093445 0.046383 -0.150690 0.108954 0.122260 0.264685 0.041138 0.121996 0.234213 -0.218426 -0.016047 0.026629 -0.274123 0.154454 0.291162 -0.047273 0.213837 -0.054658 0.036695 -0.144845 0.330126 0.080807 0.098838 -0.055537 -0.204398 -0.041252 0.331426 0.022039 0.049361 -0.034783 -0.032101 -0.023273 -0.013967 0.050885 -0.064315 0.039506 0.090718 -0.140523 0.160282 0.258539 -0.229843 0.308563 0.026679 0.126537 -0.016389 -0.154407 0.011616 0.063786 0.152979 -0.061870 -0.038822 0.028758 -0.151022 0.048581 -0.063248 -0.032419 0.092375 0.102526 -0.029535 -0.116847 -0.005000 -0.080985 -0.180178 0.201446 -0.002908 -0.030539 0.157727 0.031704 -0.222395 -0.272795 
_mail0_2.6 -0.121991 -0.277515 -0.069012 0.179635 0.193531 -0.157049 -0.119711 0.028093 0.015111 -0.053365 0.130529 -0.033747 0.086977 0.109142 0.108791 -0.093518 -0.100424 0.075247 0.017364 0.023072 -0.047135 0.040590 0.076318 0.014777 -0.220644 -0.026615 0.170904 0.127106 -0.073941 0.156908 0.220243 -0.149176 0.263409 -0.087017 -0.119927 -0.008430 -0.022171 -0.139730 0.130395 0.024295 0.013570 0.242759 0.215801 0.107909 0.114059 0.039219 0.107289 -0.122985 0.140060 0.130107 -0.198051 0.177576 -0.118032 0.042163 -0.062012 0.176583 0.075285 -0.102057 0.015565 -0.143350 0.110089 0.025683 0.042757 0.097355 -0.066981 -0.160178 -0.164129 -0.074466 0.123997 0.205517 0.028871 -0.069214 -0.093910 -0.115107 0.009143 0.255943 -0.155263 -0.122522 -0.225800 0.207406 -0.066484 -0.087720 -0.055375 0.151247 -0.065688 0.023064 0.149191 -0.004334 -0.023590 0.053315 0.085624 -0.089439 -0.127474 0.277434 0.085631 -0.189896 0.092047 0.105092 0.030242 -0.107569 0.033302 0.097577 0.136979 -0.045101 -0.078735 0.033080 0.186532 0.154277 0.007667 -0.257717 0.170689 -0.120848 -0.073746 0.098633 -0.176582 0.133161 -0.013205 -0.148699 -0.174862 0.142407 -0.206625 0.112246 -0.002342 -0.199452 0.045040 -0.121883 0.098540 -0.185564 -0.008827 0.125668 0.188039 0.100908 -0.168533 0.079324 0.011997 0.035147 -0.095260 0.000927 0.016935 0.034612 -0.030643 -0.031328 -0.137687 0.085120 -0.039487 -0.015791 0.049704 0.097390 -0.029050 -0.052869 
_mail0_2.7 0.023186 -0.452703 0.042249 0.277518 0.102292 -0.085856 -0.139362 -0.097374 -0.118858 -0.054868 0.127216 0.066818 0.223109 -0.006416 0.132181 -0.120763 -0.376367 -0.066697 0.012453 -0.062913 -0.065180 0.190770 0.257472 0.167248 -0.359196 0.300839 0.146529 0.136689 -0.234807 0.228878 0.096324 -0.112838 0.235584 -0.233587 -0.317759 0.032635 -0.075400 -0.182239 0.027444 0.216037 0.148016 0.219774 0.374105 0.112362 0.237308 -0.104148 0.117329 -0.104398 0.195229 0.307142 -0.320923 0.175882 -0.095702 0.018778 -0.079024 0.240065 0.201034 -0.255783 -0.149582 -0.046716 0.278643 0.112466 -0.032963 0.240485 -0.055125 -0.241971 -0.536174 0.186018 0.032406 0.311934 -0.045899 -0.292585 -0.273512 -0.237509 -0.225094 0.336017 0.073755 -0.073312 -0.248859 0.126475 -0.385171 0.133174 0.076358 -0.056281 -0.112843 -0.076634 0.035165 -0.128417 -0.114520 -0.069376 -0.004675 0.130692 0.103017 0.314882 0.297893 -0.084599 0.337853 0.386679 0.089848 0.024828 -0.113726 0.018908 0.132221 0.017269 -0.206477 0.157009 0.495648 0.047138 -0.007810 -0.338423 0.065258 -0.367865 -0.064211 0.091426 -0.125745 0.197469 -0.120147 -0.136138 -0.085343 0.094109 -0.397105 0.198901 -0.194700 -0.282850 0.018928 -0.154453 -0.018882 -0.265898 0.099069 0.288304 0.207593 -0.160719 -0.266473 0.252103 -0.095919 0.220121 -0.039247 -0.059667 -0.123335 -0.156888 0.017563 -0.030357 -0.194133 0.247733 -0.009409 -0.078307 0.224043 0.046609 -0.108422 0.035383 
_mail0_2.8 -0.169827 -0.129192 -0.136045 0.145328 0.095135 -0.045823 -0.091483 -0.055752 0.070260 -0.089824 0.101111 -0.002944 0.103577 0.110319 0.091215 -0.128791 -0.137867 -0.028099 0.036044 -0.010922 -0.023325 -0.052950 -0.006859 0.079954 -0.194894 -0.136475 0.102116 -0.109027 -0.007431 0.115890 -0.034944 -0.157965 0.226034 -0.185695 -0.125395 -0.035833 0.039570 -0.093924 0.094914 0.026610 0.094638 0.162606 0.179595 0.046212 0.016172 0.040810 -0.055019 0.031657 -0.092061 -0.017810 -0.086946 0.149350 -0.121189 0.006207 0.072305 0.112729 0.069802 -0.042373 0.126481 -0.099663 0.078776 -0.093431 -0.081729 0.046767 -0.096119 -0.072839 -0.120337 0.028799 0.117071 0.272957 0.095863 -0.052464 -0.085213 0.099823 -0.023545 0.272872 -0.065822 -0.104028 -0.163232 0.025350 -0.081131 0.129196 -0.102361 0.109803 0.092446 -0.015094 0.015029 -0.019037 0.116327 -0.131145 -0.027107 0.049006 -0.058735 0.114762 0.213411 -0.035549 0.105501 0.112431 -0.103078 -0.129020 0.018882 0.125935 0.127896 -0.117542 -0.187386 0.046090 0.237723 0.104453 -0.016265 -0.087601 0.194194 -0.177853 -0.011140 -0.014275 0.007647 0.057992 0.035024 -0.195456 -0.015436 0.221406 -0.145199 0.236382 -0.053349 -0.022348 0.016379 -0.140076 -0.077393 0.020274 -0.051871 0.033822 0.040605 0.001385 -0.175078 0.069567 -0.134405 0.052212 -0.068425 -0.120848 0.148536 -0.038453 0.025334 -0.028715 0.016653 0.194919 -0.028946 0.075021 -0.049739 0.030697 -0.080293 -0.084251 
_mail0_2.10 -0.214087 -0.172627 -0.199015 0.192743 0.136707 -0.059478 -0.135075 -0.099456 0.069228 -0.131242 0.165942 0.025802 0.192525 0.149000 0.098936 -0.164415 -0.164703 -0.046996 0.065958 -0.058722 -0.038167 -0.063086 0.045099 0.092382 -0.245343 -0.126943 0.142355 -0.110241 -0.006110 0.079191 -0.035390 -0.176302 0.226207 -0.249672 -0.148938 -0.027509 0.018341 -0.116504 0.145287 0.045489 0.119027 0.218676 0.221269 0.019392 0.013374 0.048842 -0.041509 0.016407 -0.162242 0.015546 -0.080594 0.160930 -0.098503 -0.002643 0.073291 0.150035 0.085885 -0.056067 0.155852 -0.122441 0.118046 -0.105363 -0.145001 0.041588 -0.131833 -0.118372 -0.176800 0.046608 0.156954 0.346988 0.125188 -0.043059 -0.056852 0.134365 -0.035407 0.316558 -0.053157 -0.102057 -0.196193 0.043475 -0.096784 0.177661 -0.111865 0.145015 0.100145 -0.078390 0.032347 -0.031252 0.161831 -0.177110 -0.034718 0.110197 -0.115382 0.111746 0.257398 -0.091584 0.149434 0.112292 -0.092356 -0.163260 0.018859 0.105130 0.189485 -0.179615 -0.218583 0.066667 0.294151 0.134375 -0.023338 -0.098803 0.262962 -0.209130 -0.039836 -0.048682 -0.027875 0.021224 -0.000878 -0.276816 -0.044879 0.245524 -0.190890 0.305748 -0.052718 -0.036430 0.002729 -0.139470 -0.044520 -0.029276 -0.060201 0.027201 0.033586 0.015841 -0.197470 0.104856 -0.154232 0.097370 -0.073839 -0.128919 0.148362 -0.047576 0.007371 -0.062273 -0.000597 0.236968 -0.018215 0.127190 -0.092164 0.073212 -0.088319 -0.133038 
_mail0_2.11 -0.195240 -0.406971 -0.183262 0.155238 0.154551 0.132534 -0.167633 -0.067323 0.068683 -0.286302 0.221978 0.062363 0.212422 -0.205106 0.125064 -0.288457 -0.100206 0.069609 0.096615 0.064047 -0.112524 -0.003662 0.056803 0.086484 -0.007834 -0.003425 0.044981 -0.197995 -0.020180 0.181203 -0.047083 -0.293773 0.038268 -0.171624 -0.078550 -0.077235 -0.007383 -0.089780 0.114899 0.006931 0.053965 0.080569 0.266729 -0.063153 -0.011531 0.148876 -0.049639 0.121396 0.036000 0.047850 -0.190339 0.165105 -0.212623 0.015322 0.133404 0.229955 0.025410 -0.136660 0.140077 0.042424 0.309656 -0.092812 -0.027914 0.030271 -0.105616 -0.214332 -0.278550 0.174661 0.063259 0.290649 -0.039279 -0.109564 -0.131022 0.196889 -0.118197 0.332277 -0.090010 -0.124910 -0.345641 0.046296 -0.335267 -0.000640 -0.160530 0.040639 0.092640 -0.192915 -0.160103 -0.027874 0.108244 -0.055312 0.019835 0.154980 -0.153400 0.050998 0.281420 -0.088264 0.226509 -0.085370 -0.039879 -0.187135 0.109022 0.122270 0.116269 0.078714 -0.296984 0.123819 0.203615 0.085388 -0.202196 0.026641 0.338561 -0.297093 -0.032974 -0.049680 -0.177345 -0.009535 -0.239749 -0.305474 0.037344 0.243584 -0.133294 0.438100 -0.066332 0.156026 0.052858 -0.152105 -0.124601 -0.057589 -0.070999 0.106078 0.000151 -0.050296 -0.137632 0.420739 -0.130764 0.159422 0.039303 -0.193491 0.087894 0.042876 -0.012443 0.088278 0.014528 0.182493 0.048663 0.109745 -0.032722 0.017327 -0.010540 -0.030253 
_mail0_3.1 -0.167544 -0.126694 -0.125998 0.170542 0.094186 -0.048003 -0.082530 -0.064708 0.080315 -0.112789 0.144390 0.021253 0.138643 0.124764 0.080802 -0.140680 -0.113899 0.001201 0.042825 -0.044386 -0.006149 -0.042153 0.033234 0.086889 -0.203298 -0.129196 0.118440 -0.105018 0.033684 0.125920 -0.036020 -0.159289 0.214876 -0.165085 -0.127099 -0.049895 0.012691 -0.123171 0.128293 0.009018 0.077174 0.166270 0.197516 0.053083 0.017498 0.004105 -0.040902 0.013331 -0.101199 -0.026429 -0.076921 0.149307 -0.093857 0.025448 0.074230 0.096699 0.072675 -0.031729 0.109205 -0.109904 0.071927 -0.081118 -0.096726 0.035530 -0.090162 -0.074046 -0.114445 0.036618 0.144216 0.252205 0.110211 -0.023063 -0.047538 0.077260 -0.047402 0.278901 -0.047000 -0.093388 -0.148546 0.045216 -0.059335 0.116127 -0.110126 0.094177 0.074809 -0.052599 0.051481 -0.018437 0.122029 -0.130717 -0.014755 0.084203 -0.098520 0.084649 0.155903 -0.071833 0.118753 0.096124 -0.102629 -0.153621 0.005717 0.085342 0.154347 -0.114531 -0.173235 0.043712 0.235655 0.096201 0.000421 -0.082206 0.226947 -0.145436 -0.025967 -0.028683 -0.009262 0.013364 0.017423 -0.191487 -0.031839 0.170632 -0.125541 0.242849 -0.034636 -0.044466 0.015062 -0.110505 -0.036927 0.022644 -0.028987 0.025708 0.054730 0.000654 -0.124265 0.053185 -0.131325 0.079894 -0.050395 -0.123764 0.108576 -0.009626 0.000791 -0.042328 0.005254 0.165253 -0.022391 0.069560 -0.084574 0.085508 -0.113182 -0.100465 
_mail0_3.2 -0.427228 -0.185213 -0.225792 0.024079 0.023170 0.111969 -0.077956 -0.081440 0.143672 -0.324402 0.119950 -0.019360 -0.167849 -0.027226 0.261729 -0.149794 -0.214141 -0.086290 0.020532 0.195688 -0.005982 -0.150491 -0.009892 0.043496 -0.127969 -0.074708 -0.060943 -0.095207 0.293407 0.049681 -0.202272 -0.377582 0.145388 -0.029730 0.087907 -0.065353 0.272376 0.048114 0.047073 0.042519 0.251526 0.440217 0.232142 0.242258 0.414793 0.289645 -0.007410 -0.182257 0.096627 -0.277050 -0.390644 0.077681 -0.072565 -0.082171 0.121681 -0.016220 -0.101142 -0.132382 0.199738 -0.198415 0.337884 0.085159 0.251709 0.577980 0.030559 -0.043190 -0.037983 0.253842 0.107604 0.100128 0.045025 0.118095 -0.069471 0.203479 -0.288314 0.502569 -0.015982 0.286106 -0.498151 -0.077857 -0.100198 -0.038597 -0.281390 -0.085378 0.240091 0.416907 -0.093336 0.274626 0.191345 0.032056 -0.098718 -0.137138 -0.326081 0.176331 0.230268 -0.487412 0.256557 0.217625 -0.308927 0.122967 0.229155 0.009580 -0.007732 0.096281 -0.478334 0.000760 0.127616 -0.051507 0.120381 -0.147005 -0.019296 0.176544 -0.352400 -0.287137 -0.273838 0.112881 0.185387 -0.125661 0.028514 0.366630 -0.155235 0.117987 0.068025 -0.121708 0.110642 -0.415726 -0.032551 -0.222067 0.017703 -0.185528 -0.110968 0.026275 -0.311184 -0.110608 0.221894 -0.114962 -0.067617 -0.261804 0.259083 -0.083080 -0.221334 -0.130898 0.030985 0.065464 0.098413 0.306024 -0.118055 0.270682 -0.180820 -0.208040 
_mail0_3.3 -0.398560 0.225508 -0.136963 0.062882 0.111399 -0.233944 0.063467 -0.199302 0.089959 -0.162808 0.089350 -0.134870 -0.065373 -0.115940 0.010809 -0.144012 -0.007917 0.056422 0.160951 -0.042769 0.033069 -0.103382 0.020417 -0.052085 -0.205989 -0.261271 0.215179 -0.205856 -0.044816 -0.032789 -0.145971 -0.346558 0.340874 -0.246964 -0.257883 -0.036146 0.163910 -0.295483 0.201990 0.138178 0.297580 0.365469 0.142989 0.042770 0.188177 0.006744 0.217429 -0.090488 0.054464 -0.088132 -0.047516 -0.013090 -0.160020 -0.003059 0.093832 0.148772 -0.070475 -0.151861 0.240297 -0.169792 -0.067602 -0.024775 -0.013829 0.005914 0.013285 -0.101155 0.224274 0.090342 0.151656 0.347282 0.167930 -0.217898 -0.015680 0.129315 -0.108202 0.440894 -0.173474 -0.427512 -0.076992 0.020571 0.041741 0.035934 -0.241477 0.272520 0.146329 0.063346 0.227778 0.121090 0.190303 -0.126861 0.166650 0.030800 -0.268365 0.220689 0.281030 -0.188367 0.062068 0.081959 -0.157769 0.050357 0.074058 -0.110659 0.024076 0.045708 -0.165146 -0.011142 0.137334 0.116316 0.230339 -0.048299 -0.018991 0.257557 -0.099513 -0.035074 -0.012063 0.131336 -0.074066 -0.153240 -0.289265 0.369449 -0.071921 0.101459 0.172920 0.019751 0.246206 -0.072840 -0.193939 0.151292 -0.092711 0.035946 -0.159926 0.164554 -0.265540 -0.024433 -0.131089 0.054320 -0.232744 -0.257064 0.003424 -0.144947 -0.054607 0.080004 -0.127018 0.160817 0.005654 0.257506 -0.090252 0.187689 -0.188978 -0.148919 
_mail0_3.4 -0.414694 0.010161 -0.349770 0.199969 0.169331 -0.217206 -0.062580 -0.025081 0.120006 -0.295738 0.058385 -0.021109 0.000473 -0.060033 0.101132 -0.258187 -0.129291 0.104753 -0.134894 -0.056235 0.037142 -0.090898 -0.137273 -0.066968 -0.114857 -0.283147 0.183099 -0.197523 -0.002171 0.069340 0.000531 -0.467050 0.237202 -0.007626 -0.113711 0.187815 0.161225 -0.075131 -0.009270 0.023155 0.279916 0.222333 0.104301 0.194208 0.019858 -0.066674 -0.113853 0.084078 -0.197219 -0.022064 -0.107424 0.139294 -0.089386 -0.011588 0.173533 0.137516 0.001809 -0.134850 0.134420 -0.195889 0.071706 -0.104890 0.091796 0.005457 -0.118128 -0.051572 -0.040471 0.054257 0.258003 0.213754 0.271189 0.274392 0.173741 0.129578 -0.105947 0.357483 -0.251775 -0.189572 0.052398 -0.148753 0.125450 0.024730 -0.208352 0.135903 0.026948 -0.014840 0.091093 0.046034 0.095574 -0.123969 0.269080 0.110554 -0.030470 0.109660 0.305903 -0.050964 0.166744 -0.035159 0.160430 -0.038870 0.181404 -0.044769 0.096082 0.049574 -0.154818 0.004008 0.135712 0.127041 -0.013516 -0.188622 0.106825 0.031733 0.033904 -0.033009 0.069549 0.019503 -0.149663 -0.205086 -0.203351 0.165293 -0.115899 0.049003 -0.018020 -0.052922 0.140890 0.016213 -0.037186 -0.118566 -0.110889 -0.105595 0.030234 -0.099038 -0.286832 -0.097489 -0.168197 0.145022 0.006539 -0.297932 0.033056 0.017275 -0.024417 0.206520 -0.111673 0.193026 -0.003773 0.082566 -0.091896 0.197153 0.000613 -0.011075 
_mail0_3.5 -0.201728 -0.138604 -0.150530 0.155120 0.121819 -0.073367 -0.124077 -0.103166 0.073262 -0.088915 0.167731 -0.002806 0.159535 0.120150 0.087837 -0.123097 -0.114234 -0.038517 0.082587 -0.035229 -0.030913 -0.062519 0.027219 0.099865 -0.155160 -0.138461 0.145986 -0.078795 0.015436 0.086362 -0.036967 -0.194110 0.189677 -0.176584 -0.111679 -0.025595 0.037863 -0.104920 0.116687 0.009895 0.073762 0.180391 0.154533 0.033560 0.009039 0.044778 -0.052542 -0.001672 -0.119197 0.002489 -0.077299 0.122049 -0.102187 -0.010846 0.066838 0.090528 0.044769 -0.010880 0.129409 -0.141982 0.074901 -0.082905 -0.114938 0.039952 -0.092534 -0.071133 -0.116491 0.011887 0.138173 0.277241 0.127799 -0.026164 -0.052759 0.102912 -0.039285 0.287089 -0.044509 -0.095048 -0.134911 0.017493 -0.055985 0.136734 -0.123606 0.111201 0.083308 -0.029666 0.036166 -0.022498 0.135614 -0.143357 -0.033986 0.084623 -0.074014 0.093410 0.189702 -0.097785 0.110903 0.093438 -0.072369 -0.129635 0.002429 0.075858 0.140563 -0.158086 -0.181532 0.040220 0.218404 0.075530 0.002268 -0.108566 0.228405 -0.151583 -0.073207 -0.036794 0.036435 0.033721 0.024663 -0.224023 0.008118 0.161011 -0.161082 0.223813 -0.033645 -0.015659 0.014493 -0.112071 -0.056240 0.019599 -0.046172 0.007863 0.017764 0.003022 -0.151528 0.045785 -0.118220 0.065079 -0.087380 -0.093213 0.106109 -0.036847 0.016501 0.002899 -0.027483 0.180552 -0.016421 0.110911 -0.091336 0.061989 -0.098739 -0.111862 
_mail0_3.6 -0.258887 -0.056699 -0.222143 0.023140 0.016283 -0.135972 -0.137491 0.075038 0.153325 -0.076773 0.093133 -0.152029 0.089686 -0.019029 0.065273 -0.189592 -0.080148 0.007472 0.048926 0.008480 0.010833 -0.065853 0.025407 -0.015683 -0.055621 -0.209619 0.117106 -0.086389 0.036677 -0.130873 -0.022650 -0.243899 0.093185 -0.054187 -0.090934 -0.016188 -0.092668 0.041286 0.104579 0.101511 0.189431 0.125399 0.125450 0.018475 0.092880 0.092904 0.040131 -0.017938 0.046670 0.009857 -0.068445 0.117951 -0.101593 0.013858 0.147839 0.126589 0.063992 -0.093128 0.100103 -0.187622 0.031626 -0.137861 0.039928 0.062127 -0.091186 -0.155069 -0.071182 -0.048558 0.076768 0.249015 0.168777 -0.022261 0.006648 -0.038010 -0.012217 0.168856 -0.139223 -0.059231 -0.087000 -0.092634 0.044763 0.124752 -0.028986 0.132844 0.012638 -0.020677 0.132421 -0.010072 0.044673 -0.135927 0.076097 0.031814 -0.045753 0.044826 0.101677 -0.189163 0.052042 -0.100060 -0.030318 0.008893 0.071535 0.010386 0.176556 -0.031644 -0.175424 0.003528 -0.015971 0.130116 -0.048914 -0.195486 0.134084 -0.028902 -0.106494 -0.050152 0.012508 -0.081717 -0.018080 -0.177801 -0.179623 0.155467 -0.112982 0.163843 -0.038781 -0.096516 -0.004489 -0.065428 -0.007636 -0.042581 0.001623 -0.079028 -0.025252 0.115126 -0.216636 0.036974 0.030745 0.036047 0.002488 -0.132479 0.029770 -0.022309 0.002486 -0.083489 -0.055925 0.206380 -0.004669 0.072668 -0.091014 0.136455 -0.094560 -0.049332 
_mail0_3.7 -0.040493 0.076301 -0.047849 0.005827 0.092114 -0.081690 -0.041990 -0.111846 0.167490 -0.241719 -0.021979 -0.151957 0.003591 -0.025998 0.020949 -0.256207 -0.137400 -0.098126 0.101432 -0.068493 0.192123 -0.131910 -0.081501 0.088286 -0.316910 -0.257625 -0.216135 -0.414815 0.098923 0.172932 -0.192348 -0.317989 0.514976 -0.396093 -0.319448 -0.062392 0.068954 -0.143962 0.085452 -0.206883 0.237929 0.437927 -0.169301 0.014907 0.083636 0.203147 -0.148230 0.152268 -0.119926 0.057279 -0.152451 0.310380 -0.095333 0.048338 -0.020564 0.332152 -0.051052 -0.128286 0.139753 -0.257511 0.065527 0.152991 -0.073647 0.122059 0.055272 0.034483 0.132659 -0.043137 0.202744 0.480489 0.574578 0.137179 -0.099184 0.142868 -0.170165 0.114539 -0.204982 -0.416689 -0.231545 -0.017739 -0.020601 -0.007417 -0.264050 0.090493 0.079032 0.206932 -0.052881 0.094084 0.110536 -0.240471 -0.008947 0.173844 -0.311085 0.174386 0.223533 -0.140080 0.101573 0.261399 -0.040916 -0.044429 0.126683 0.234090 0.062026 0.110864 -0.460813 0.183418 0.166704 -0.210360 0.283427 -0.000768 -0.119346 0.029006 0.025367 0.018758 0.167540 -0.110314 -0.028282 -0.134593 0.299959 -0.099881 0.083894 0.424641 0.103324 0.299215 0.222929 -0.294800 -0.118962 0.033152 0.166954 -0.037311 -0.150910 0.216623 -0.425284 -0.108240 -0.344968 0.100760 -0.037756 -0.166446 0.209950 -0.029782 -0.202022 0.097990 0.036019 0.382613 0.170202 0.235059 -0.174939 -0.031346 -0.019739 0.034466 
_mail0_3.8 -0.428852 -0.123536 -0.210076 0.094956 0.041061 -0.180592 -0.025479 -0.116085 0.303055 -0.104192 0.099003 0.292195 0.251596 0.160640 0.041359 -0.228664 -0.070349 0.070384 -0.011422 -0.044778 0.039657 -0.087527 0.105950 -0.147236 -0.039175 -0.141581 0.094733 -0.188808 0.009433 -0.011786 -0.188094 -0.121942 0.172886 -0.023508 -0.345444 -0.053515 0.077232 0.118811 0.221945 0.025646 0.074974 0.115262 -0.014706 0.105642 0.098204 0.146928 -0.258248 0.300247 0.150543 0.088173 -0.003062 0.106692 -0.033593 -0.007372 -0.103362 0.159889 0.158208 -0.040802 0.230396 -0.214339 -0.037549 0.038343 -0.154796 -0.083775 0.067613 -0.123956 -0.031662 0.032038 0.126438 0.095363 0.203670 -0.047737 -0.070344 -0.026497 -0.106787 0.295178 -0.110276 -0.136297 -0.342088 -0.053371 -0.039739 0.205217 -0.085403 0.245761 0.207448 0.071043 0.197870 -0.007042 0.179609 0.009651 -0.071283 0.033755 -0.128291 0.031574 -0.020093 -0.129358 0.158724 -0.158013 -0.100155 -0.153859 0.088444 -0.108716 -0.010102 -0.107709 -0.283489 0.029782 0.182226 -0.062675 -0.076349 -0.231151 0.106745 -0.167303 0.075138 0.033018 0.110070 0.172494 0.176662 -0.149570 0.104687 0.100819 -0.206927 0.437138 0.014790 -0.112520 0.019094 -0.068053 -0.272016 0.158627 0.052451 0.178236 0.126922 0.149869 -0.310508 0.078707 -0.119132 0.065122 -0.229853 -0.053386 0.156128 -0.119537 0.054346 0.179383 0.023285 0.220952 -0.047851 0.099497 0.093203 0.067978 -0.253884 -0.193407 
_mail0_3.9 -0.112593 -0.176883 -0.020297 0.181657 0.139812 0.021727 0.039938 0.011043 0.052814 -0.082582 0.018192 -0.044669 0.091059 0.160507 0.060262 -0.082867 -0.078509 0.003469 0.024219 -0.038586 -0.058179 0.042508 -0.025388 -0.052160 -0.117030 -0.100547 0.172545 -0.012624 0.004256 0.061392 -0.011051 -0.122090 0.192773 -0.049411 -0.019997 -0.033054 0.040245 -0.135253 0.128477 0.091820 0.161138 0.147131 0.160470 0.006410 0.041003 0.000318 -0.033832 -0.015860 -0.017016 -0.013076 -0.126003 0.134729 -0.014662 0.034776 0.007022 0.102453 0.070979 0.062553 0.113868 -0.035605 0.012024 -0.155522 -0.005613 -0.005721 -0.115210 -0.050962 -0.169231 0.069665 0.152323 0.249215 0.157146 0.038840 0.001184 0.056318 0.094586 0.337291 0.062030 -0.080730 -0.225744 0.067514 -0.063007 0.119121 -0.014857 0.033976 0.043284 -0.068110 0.085268 -0.057952 0.072544 -0.054654 0.006756 0.092734 -0.057457 0.100955 0.065153 0.058574 0.117563 0.092718 -0.001688 -0.140763 -0.101218 0.106553 0.197962 -0.067889 -0.165057 0.085628 0.172336 0.067504 0.102126 -0.137133 0.243598 -0.161987 0.011399 -0.117233 0.013086 0.151536 -0.075821 -0.192337 -0.022966 0.162148 -0.211227 0.163390 -0.094120 -0.079910 0.095203 -0.043356 0.056303 0.034826 -0.080910 0.130200 0.107586 -0.049219 -0.150579 0.124686 -0.170569 0.155007 -0.074612 -0.105214 -0.054325 -0.023310 0.109133 0.102896 0.025821 0.069163 -0.094134 0.143094 -0.109403 0.016618 -0.037828 -0.072137 
_mail0_4.1 -0.375601 0.139188 -0.176642 0.040316 -0.016259 -0.043200 -0.075748 -0.045570 0.230910 -0.092423 0.093079 -0.272530 -0.038381 -0.241861 0.164228 -0.280953 -0.111287 0.076542 0.328215 0.135407 -0.059263 -0.098829 -0.091133 -0.092154 0.136315 -0.085140 0.069010 -0.167120 0.367667 -0.017397 -0.109273 -0.218323 0.295594 -0.134866 -0.283605 -0.028809 0.229766 0.143155 0.245675 0.098696 0.447259 0.393200 -0.165496 0.146858 0.344823 0.155719 0.259260 -0.037172 -0.093883 -0.132052 -0.379705 0.017887 0.016958 -0.075074 0.061915 -0.097024 -0.167481 -0.150109 0.251360 -0.483790 0.325239 0.070976 0.206374 0.104011 -0.076824 -0.036140 0.114009 0.190960 0.181784 0.102408 0.276387 -0.242096 -0.138108 0.170407 -0.461521 0.589224 -0.018289 -0.164141 -0.493915 0.120414 0.098633 -0.013164 -0.442543 0.027713 0.092607 0.381513 -0.005010 0.132821 0.218157 -0.149984 0.243394 -0.070677 -0.618650 0.320892 0.330939 -0.226788 0.242836 0.115166 -0.277271 -0.139986 -0.093440 -0.160363 0.009884 0.028607 -0.132231 -0.140299 0.217250 -0.146646 0.352948 -0.234325 -0.155182 0.063426 -0.140409 -0.039702 -0.185331 0.133157 0.225483 -0.195821 -0.144086 0.412067 0.044483 0.422683 -0.046200 0.053266 0.067217 -0.109920 -0.378608 -0.209943 -0.053870 0.002151 -0.129716 0.151113 -0.432626 0.005964 0.026183 0.002450 0.001530 -0.158580 0.106115 -0.195210 -0.266566 -0.076341 -0.211917 0.206587 0.192184 0.192635 -0.004906 0.199166 -0.033962 -0.090332 
_mail0_4.2 0.070251 -0.163114 -0.270933 0.272166 0.079366 0.029044 -0.037815 -0.390243 0.113576 -0.078117 0.050343 -0.186109 0.003592 0.271593 0.211150 -0.079383 -0.247451 -0.135240 0.250169 0.070089 0.001968 0.058610 -0.014542 0.102119 -0.445512 -0.082574 -0.110791 -0.210213 0.062979 0.030318 -0.162063 -0.284493 0.319267 -0.240183 0.088649 0.006493 0.240917 -0.180194 0.224015 0.185850 0.117162 0.377693 -0.184356 -0.058084 -0.198114 0.072521 0.071043 -0.051333 -0.147690 0.003886 -0.165290 -0.230143 -0.006920 -0.125135 -0.029488 0.008592 0.055474 -0.025786 0.234066 -0.294526 -0.098346 0.058071 -0.038937 0.125117 0.016075 0.006214 0.126329 0.043577 0.394924 0.289954 0.275005 0.121688 0.033084 0.221872 0.010026 0.362904 -0.097045 -0.143953 -0.250084 0.113395 -0.089916 0.085745 -0.273732 -0.144780 -0.031186 0.453482 0.058795 0.121592 0.256818 -0.276082 0.081348 0.165198 -0.220320 0.023171 0.335241 -0.110995 0.274214 -0.134071 0.057245 -0.020341 -0.016900 -0.207391 0.110873 0.218837 -0.217697 0.107587 0.261347 -0.090842 0.118836 0.139141 -0.118911 -0.070418 -0.099992 -0.039857 -0.010548 0.297262 0.282904 -0.408524 -0.115922 0.189366 -0.058809 0.583860 -0.066154 -0.234040 0.178271 -0.273601 -0.105674 0.114273 -0.097735 0.193775 0.081397 0.272561 -0.361771 0.130259 -0.303465 0.244933 -0.162059 -0.230697 -0.128150 -0.174842 -0.229726 0.212118 -0.135241 0.201997 0.087139 0.271234 -0.167047 -0.026601 -0.095328 -0.266472 
_mail0_4.3 -0.235014 -0.310192 -0.207695 -0.121844 -0.031443 0.045515 -0.073094 -0.253935 0.017951 -0.097838 0.255795 -0.001719 0.204675 0.262513 0.204723 -0.144138 -0.117324 -0.041110 0.634294 -0.068529 0.060500 -0.072747 -0.334723 -0.211178 -0.283019 -0.074339 -0.070176 -0.130349 0.060498 -0.058948 -0.073957 -0.341341 -0.054786 -0.187522 0.052980 0.021058 0.068936 -0.163344 0.040070 0.011597 0.338337 0.180294 0.175167 0.155740 0.135508 0.200866 0.218529 -0.307306 -0.202421 0.036229 -0.098884 0.076616 -0.186694 -0.067660 0.119659 0.073754 0.137486 0.015064 0.444776 -0.336304 -0.103198 0.353775 0.148517 0.220811 0.201148 -0.241949 0.156961 0.300543 0.165408 0.330817 0.171642 -0.291292 0.035061 0.093372 -0.017460 0.360460 -0.154914 -0.227491 -0.266160 -0.284974 -0.039537 -0.207739 0.221681 -0.052008 0.300596 0.517347 0.273896 0.119421 0.127837 -0.056667 -0.259908 0.087027 -0.197800 0.251609 0.190890 -0.417595 0.221571 0.133944 -0.143858 0.219163 0.187064 0.278164 0.244957 -0.162922 -0.263935 0.098663 0.233195 -0.042825 0.243787 0.049089 -0.062055 0.021657 -0.306778 0.019274 0.078714 0.196459 0.027575 -0.414448 -0.309260 0.220051 -0.070524 0.508012 -0.000549 -0.110573 0.221763 -0.458306 -0.054404 0.071004 -0.122404 0.045991 -0.139184 0.328609 -0.067029 -0.133004 -0.147279 -0.028390 0.113215 -0.249896 0.046767 -0.104298 -0.130116 -0.038595 0.097413 0.242394 0.161163 0.144339 -0.190562 0.028622 -0.235309 -0.295575 
_mail0_4.4 -0.001529 -0.138590 0.064281 -0.070645 0.028334 -0.105122 0.112913 -0.137126 0.394009 -0.381116 0.354661 -0.109500 0.056414 0.100784 0.027983 -0.235366 -0.328614 -0.316170 0.285131 -0.052316 0.070600 -0.196648 -0.342632 -0.074231 0.073711 -0.434525 -0.342312 -0.540701 0.054135 0.345199 0.096989 -0.236148 0.234010 -0.509637 -0.010941 0.061019 -0.141233 -0.263914 0.194233 -0.070697 0.289877 0.276146 0.113363 -0.071690 -0.075057 0.191718 0.270730 -0.224544 -0.133594 0.146904 -0.190948 0.004023 -0.222353 -0.293909 0.022003 -0.107709 -0.032331 -0.104914 0.440559 -0.130001 0.041388 0.049897 0.041506 -0.082872 -0.194684 -0.172983 -0.054463 -0.048820 0.380488 0.377708 0.226263 -0.069727 0.152489 0.166217 -0.157597 0.703763 0.011551 -0.083062 -0.069550 -0.123070 -0.176913 0.117838 -0.263814 -0.007985 0.049803 0.493134 0.044024 0.204741 0.067955 -0.094041 -0.224978 -0.125612 -0.320892 0.142240 -0.048225 -0.315636 0.365522 0.161517 -0.256666 -0.033954 0.213346 -0.018269 0.256157 0.344215 -0.208471 -0.062039 0.209272 0.129535 0.153848 -0.113746 -0.119319 0.096467 -0.165039 -0.086418 0.125415 0.211406 0.126478 -0.350675 -0.233636 0.150386 0.042772 0.412968 0.234181 -0.024439 -0.049183 -0.319517 -0.304307 0.186328 -0.150403 0.318056 -0.007076 0.267377 0.122160 0.155428 -0.291711 0.150846 -0.218866 -0.179897 -0.287102 -0.233491 -0.086565 -0.095345 -0.092708 0.267459 0.398516 0.183889 -0.434537 0.133634 -0.062378 -0.169720 
_mail0_4.5 -0.075189 -0.088772 -0.172895 0.211519 0.113276 -0.074610 0.025401 0.019394 0.060346 -0.040950 0.134268 -0.050723 0.075178 0.021934 0.118198 -0.117154 -0.076878 -0.011013 -0.066462 -0.110512 -0.057285 0.087091 0.100199 0.020031 -0.251598 0.020062 0.138622 0.007604 -0.110603 0.087747 -0.024767 -0.130683 0.171351 0.084535 -0.114482 -0.157472 0.129840 -0.175763 0.122490 0.093456 0.062057 0.120848 0.250993 0.094399 -0.034381 0.055126 0.022319 -0.049406 -0.019759 -0.030001 -0.099000 0.155658 -0.039773 -0.025336 0.114869 0.106111 0.095012 -0.028313 0.092859 0.057870 0.078792 -0.109329 -0.109177 0.075147 -0.086304 -0.038429 -0.216519 0.005790 0.160313 0.277784 0.121231 -0.018106 -0.042845 0.078285 0.084516 0.255584 -0.067296 -0.053849 -0.227556 0.061504 -0.106577 0.046227 -0.163469 0.071238 0.088624 -0.007656 0.077028 0.015185 0.123832 -0.027458 0.038832 0.068771 -0.081378 0.138466 0.199492 0.042237 -0.024375 0.146048 -0.084061 -0.157256 -0.080350 0.125735 0.112580 -0.070161 -0.061029 0.003762 0.245345 0.089808 -0.053069 -0.199120 0.240323 -0.109162 -0.047893 -0.007893 0.009078 0.120350 0.092388 -0.205465 -0.036109 0.073217 -0.037041 0.144529 -0.126512 -0.091263 0.031219 -0.100489 0.001974 0.037244 0.029572 0.109540 0.060879 -0.020830 -0.007698 -0.022996 -0.054153 0.025046 -0.049739 -0.032299 0.145332 -0.043566 0.070911 0.009950 0.012190 0.126499 -0.024159 0.040658 -0.079913 0.015289 0.080528 -0.038432 
_mail0_5.3 -0.150414 -0.033164 -0.001152 0.126719 0.085792 -0.103082 -0.057700 -0.117505 0.133203 -0.172860 -0.012784 -0.034922 -0.033272 0.024674 0.032884 -0.232510 -0.174782 -0.102270 0.009510 -0.028376 -0.079160 0.051568 -0.114911 0.103835 -0.139693 -0.293584 0.216091 -0.126991 -0.028027 0.139489 0.116000 -0.176383 0.180791 -0.163294 -0.135588 -0.068819 -0.083936 -0.195818 0.144443 -0.053756 0.273958 0.386550 0.214683 0.047013 0.200854 0.121761 0.007221 -0.059281 -0.024507 -0.067878 -0.110182 0.064501 -0.136636 0.144425 0.088374 0.129300 -0.004456 -0.291482 0.114540 -0.286843 0.023950 0.048976 0.012254 0.114368 -0.187091 -0.169955 -0.063697 0.040403 0.151588 0.262738 0.095182 -0.044206 0.065062 0.046943 -0.039308 0.289362 -0.041500 -0.237453 -0.140722 -0.017428 -0.071044 0.061616 -0.077058 0.158326 0.081973 -0.067978 0.167399 0.057385 0.236986 -0.124250 0.084315 0.075365 -0.152351 0.150598 0.284188 -0.037326 0.211470 -0.082503 -0.004712 0.016130 -0.019427 -0.073959 0.057624 -0.056519 -0.131478 -0.014483 0.149647 0.073751 -0.123161 -0.034275 0.172138 0.038679 -0.001642 -0.117586 0.093787 -0.141144 0.056038 -0.193688 -0.243727 0.166665 -0.005705 0.119756 -0.140423 -0.021978 0.120925 -0.146301 -0.098759 0.002157 0.158414 0.002695 -0.002485 0.014677 -0.287030 -0.025181 -0.219517 0.017409 -0.082009 -0.020363 0.159515 -0.049702 -0.135048 -0.071905 -0.131982 0.208587 -0.058099 0.217268 0.056335 0.275429 -0.115328 -0.158527 
_mail0_5.4 -0.150088 0.104835 -0.097303 0.018944 0.007350 -0.119686 -0.065689 -0.262164 0.075022 -0.345551 0.116551 -0.153928 0.066101 0.175068 0.243416 -0.094280 -0.243294 -0.094996 0.307168 -0.028638 0.156725 -0.138569 -0.076710 0.313030 0.009642 -0.229939 -0.164635 -0.083321 -0.021152 0.084678 -0.030584 -0.384924 0.082022 -0.206814 -0.362085 0.006215 0.109498 0.000423 0.249161 -0.093658 -0.103351 0.533267 0.134088 0.088051 -0.135305 0.026571 0.045993 -0.001587 -0.350881 0.017532 -0.174630 0.049323 -0.079632 -0.370803 -0.076617 0.145500 -0.029444 0.073471 0.319510 -0.403175 0.136464 0.424148 -0.344098 0.088596 0.171007 0.035928 0.279777 0.064596 0.269713 0.235653 0.318056 0.145959 -0.131414 0.106333 -0.213052 0.336086 -0.138825 -0.047396 -0.387793 0.146105 -0.079209 -0.222122 -0.140465 -0.118709 0.094767 0.543141 0.151354 0.018419 0.075285 -0.193853 -0.133763 0.046230 -0.285058 0.308349 0.047972 -0.313991 0.231334 -0.071419 -0.268089 0.121376 -0.024218 -0.193301 0.041904 0.155347 -0.488509 0.108710 0.179673 -0.104191 0.096354 -0.080800 -0.200482 -0.065961 -0.275841 -0.259201 0.125553 -0.015370 0.169581 -0.393427 -0.102575 0.396423 -0.440491 0.339028 0.007508 0.476813 0.207481 -0.344251 -0.106763 0.075581 0.295754 0.094970 0.002028 -0.041373 -0.172780 0.119292 0.005779 0.124495 -0.057203 0.176352 0.092824 -0.261190 -0.443282 0.015783 0.005271 0.221314 0.144474 0.057617 -0.232565 0.089445 -0.065992 -0.045721 
_mail0_5.5 -0.184473 -0.142017 0.078465 0.049922 0.159045 0.041584 -0.151052 -0.317558 -0.327404 -0.191925 0.219445 0.074118 0.109072 0.130471 0.209386 -0.205334 -0.399939 0.190352 0.368834 0.064240 0.189766 -0.304459 -0.158762 0.059928 -0.135184 0.055632 -0.084004 -0.103426 -0.156948 0.007297 -0.134445 -0.175492 0.381894 -0.400639 -0.320301 -0.231270 0.213375 -0.173306 0.325272 -0.029138 0.207655 0.478066 -0.033191 0.242690 0.017169 0.050406 0.037268 -0.238398 -0.255719 0.135584 -0.031281 0.283988 -0.228014 -0.126338 0.129255 0.228582 0.275237 0.188150 0.381993 -0.125255 -0.082905 0.016068 -0.090907 -0.161731 -0.104043 0.233180 0.169980 -0.005800 -0.082610 0.128168 0.044356 0.050925 -0.276218 0.132088 -0.258539 0.140746 -0.287823 -0.110435 -0.151320 -0.034079 0.116486 -0.187188 -0.159778 -0.057810 0.183970 0.221617 0.359212 0.014278 0.249364 -0.217284 -0.014618 0.075329 -0.244243 -0.041121 0.439177 -0.178983 -0.000640 -0.118403 0.032703 0.105703 0.009379 0.054017 0.171597 -0.109392 -0.155459 0.017582 0.362611 0.025543 0.213709 0.122190 0.021177 0.097289 -0.176478 0.098424 0.128464 0.073100 0.296230 -0.268515 -0.103056 0.322557 -0.271658 0.289494 0.053518 0.363011 0.094148 0.049271 -0.172802 -0.225702 -0.101720 0.083018 -0.122630 0.098939 -0.317782 0.203221 -0.298871 0.121197 -0.138861 -0.228140 -0.033651 0.136302 -0.187026 0.057891 -0.174773 0.311518 0.167491 0.237053 -0.212624 -0.222297 -0.310329 -0.260068 
_mail0_5.6 -0.207593 0.020492 -0.043212 0.213903 -0.004917 -0.135151 -0.129277 -0.178787 -0.005860 -0.055076 0.082862 -0.061822 -0.050968 -0.023506 0.139506 -0.160411 -0.211368 0.011770 0.093357 -0.057295 -0.090604 -0.042994 -0.044560 0.121548 -0.220113 -0.124152 0.112258 -0.110665 0.026176 -0.012549 -0.028027 -0.166831 0.192341 -0.211724 -0.142518 -0.044300 0.103901 -0.073739 0.100285 0.157260 0.176596 0.137075 0.074154 0.102872 -0.084353 -0.014676 0.122066 -0.129148 -0.086118 -0.022126 -0.064958 0.091261 -0.097833 0.023532 0.126488 0.112957 0.054163 -0.084300 0.184209 -0.048225 -0.098276 -0.067962 -0.071735 -0.086448 -0.107997 -0.131145 -0.027950 -0.085670 -0.023637 0.195661 0.148524 0.063299 0.009100 0.051860 -0.025755 0.228529 -0.082493 -0.299163 -0.033551 -0.001672 0.045075 0.056550 -0.148175 0.184995 0.158180 -0.010739 0.128021 0.099963 0.159511 -0.073970 0.069221 0.041080 -0.052530 -0.007976 0.251186 -0.110506 0.062161 -0.058807 -0.100284 -0.017077 0.053028 -0.012683 0.038432 0.025818 -0.010432 0.039666 0.210348 0.038350 0.089772 -0.069670 0.085042 0.047268 -0.065906 0.043591 -0.005526 -0.001081 -0.125464 -0.297679 -0.257906 0.162764 -0.134262 0.203984 -0.028975 0.108999 0.124074 -0.131413 -0.075907 0.082823 -0.018402 -0.045924 -0.105797 0.110481 -0.363412 0.086464 -0.210519 0.096288 0.007869 -0.247907 0.040606 0.094133 -0.031157 0.028634 -0.112042 0.126413 0.177326 0.154531 -0.177886 0.046102 0.042072 -0.070551 
_mail0_5.7 -0.173828 -0.144698 -0.044956 0.285005 0.202403 -0.042535 0.046955 0.133999 0.013713 -0.142286 0.167973 -0.052283 0.048551 -0.003426 0.074098 -0.111696 -0.108014 0.056006 0.152626 0.003090 0.023702 -0.127647 0.031609 0.115081 -0.207411 -0.014115 0.101982 -0.009594 -0.175726 0.031323 0.033731 -0.117452 0.112078 0.008393 -0.000650 0.007859 -0.210254 -0.070574 0.128823 0.134793 0.067907 0.214792 0.279368 0.120298 0.066970 0.049403 0.126747 0.046541 -0.182126 0.008617 -0.059575 0.230521 -0.082769 -0.154164 0.017992 0.203939 0.086344 -0.153808 -0.078124 -0.009722 -0.041333 -0.017533 -0.078062 0.072977 -0.161566 -0.119496 -0.312373 0.072659 0.146892 0.079913 0.213396 -0.050755 0.025615 0.069904 -0.039701 0.345963 0.086444 -0.052097 -0.283702 0.088326 -0.213464 -0.070529 -0.098692 0.060094 0.054328 -0.130260 -0.021159 -0.006879 0.102051 0.028253 0.154187 0.048503 0.111567 0.224473 0.185173 -0.160678 -0.174509 0.033328 -0.065452 -0.131692 -0.007619 0.094317 0.151045 -0.051047 -0.111332 -0.020428 0.104456 0.157468 -0.041861 -0.087486 0.146070 -0.139537 -0.039284 -0.111441 -0.183952 0.018198 0.013029 -0.208211 -0.164039 0.162445 -0.231823 0.116858 -0.223339 -0.028207 0.086035 -0.055806 -0.015702 -0.152581 -0.046790 0.121482 0.159871 -0.041445 -0.114818 0.056699 -0.055649 0.027477 -0.071302 -0.274262 -0.068089 -0.096618 -0.091450 -0.230873 0.064075 0.223875 0.022080 0.027395 -0.229449 0.051131 -0.010675 0.009760 
_mail0_5.8 -0.229485 -0.232148 0.022711 0.231440 0.236952 -0.041841 -0.034791 -0.018925 0.040568 -0.146740 0.255826 -0.150905 0.073025 -0.045132 0.077254 -0.130345 -0.279060 0.104192 0.187297 0.037192 -0.051761 0.080276 -0.021159 0.156245 0.022288 -0.062812 -0.074619 -0.027556 -0.080100 0.012489 0.026526 -0.106368 -0.013645 -0.004495 -0.192860 0.124635 -0.219457 -0.139813 0.232777 0.264256 0.093973 0.146185 0.260253 0.006369 -0.144348 0.087745 -0.003777 0.147932 -0.268579 -0.115487 -0.053086 0.158674 -0.149574 -0.109622 0.097518 0.196737 0.084976 -0.265935 -0.124755 -0.172427 -0.043619 -0.039567 -0.213405 0.064393 -0.237435 -0.290276 -0.313181 0.036051 0.112593 0.096340 0.174490 0.010818 -0.121465 0.104348 0.147098 0.377911 0.057806 -0.118639 -0.361174 0.211322 -0.234278 0.180882 -0.058304 0.116312 0.124685 -0.150690 0.012550 -0.175509 -0.099430 -0.158551 -0.011509 -0.022682 0.209690 0.051748 0.216895 0.025021 -0.014051 0.029409 -0.009136 0.011571 -0.018344 0.073461 -0.041780 0.010799 -0.070522 0.015366 0.193343 0.178662 -0.075133 -0.109310 0.152461 -0.166460 -0.023265 -0.098035 -0.166495 -0.079121 0.096202 -0.302202 -0.201159 0.363327 -0.304831 0.164225 -0.226703 -0.017322 0.007413 -0.220270 -0.005198 -0.138923 0.105376 0.267350 0.080307 -0.094404 -0.132590 0.099741 -0.055846 0.214256 0.048612 -0.265745 0.098571 -0.150248 0.117548 -0.254155 -0.065494 0.272731 0.026784 0.019411 -0.183640 0.024409 -0.128430 -0.031038 
_mail0_5.9 -0.162242 -0.501939 0.145551 0.422439 -0.145560 0.252607 0.238603 -0.070790 0.285965 -0.172542 0.220641 0.099798 0.069530 0.116938 0.256136 -0.081750 -0.363284 0.131739 -0.016775 0.255823 -0.104006 0.098868 0.178204 0.183171 0.059000 -0.377828 0.276535 0.008362 -0.261618 0.066464 0.153691 -0.121711 0.300554 -0.043069 -0.107401 0.210607 -0.211020 -0.084197 0.235798 0.126230 0.047600 0.133290 0.198220 0.028734 0.141751 0.196956 0.076723 0.378373 -0.570337 -0.027180 -0.006508 0.364270 -0.159389 0.038288 -0.192923 0.053466 0.327756 -0.360133 0.000334 -0.056435 0.138123 0.000848 -0.174818 -0.032426 -0.261879 -0.204124 -0.195805 -0.376646 0.095253 0.234676 0.346792 -0.072724 -0.415594 0.122686 -0.102427 0.128913 0.067396 -0.283156 -0.374365 -0.129180 -0.036713 0.070844 -0.154571 0.150208 0.038729 -0.317959 0.150996 -0.189767 -0.006476 -0.216510 0.014890 -0.075967 0.116311 -0.217141 0.175775 0.060777 0.240588 0.082842 -0.015532 -0.069126 0.047217 0.263604 0.326326 -0.258294 -0.114594 0.377910 0.145784 0.088850 -0.058037 -0.109737 0.249254 -0.274987 -0.000959 -0.194900 -0.306587 -0.029259 -0.116118 -0.059797 -0.033547 0.153096 -0.194684 0.145983 -0.187566 -0.112505 0.122383 -0.008924 -0.024905 0.059927 0.187343 0.120986 -0.088410 -0.030936 -0.089235 0.198711 -0.251091 0.030583 -0.023129 -0.254847 0.004527 -0.055015 0.041975 0.037575 -0.276096 0.251191 0.018555 -0.012833 -0.130309 0.006280 0.083185 -0.085081 
_mail0_5.10 -0.343132 -0.263898 -0.153796 0.345127 0.052823 -0.036447 -0.007542 -0.029122 0.133507 0.057064 0.234815 -0.052414 0.116769 0.196663 0.119094 -0.224489 -0.225000 0.013007 0.030622 -0.009933 -0.064506 -0.006879 0.088760 0.139340 -0.187626 -0.032390 0.206730 -0.111447 -0.106985 0.164987 -0.036909 -0.071040 0.217819 -0.351944 -0.071885 0.030288 -0.045924 -0.124401 0.172504 -0.043453 0.021567 0.166681 0.307768 -0.023192 -0.039496 0.292533 0.047079 0.066396 -0.050244 0.121544 -0.072138 0.293218 -0.211821 0.026392 0.066606 0.077415 0.171785 -0.110951 0.107339 -0.206291 0.159164 -0.076179 -0.320866 0.056044 -0.261380 -0.175628 -0.253432 0.046768 0.131572 0.181683 0.070810 -0.032379 -0.296881 0.134741 -0.026511 0.403946 -0.188350 -0.218547 -0.134983 -0.093590 -0.090243 0.153020 -0.109535 0.050945 0.073256 -0.097283 -0.024193 0.025174 0.021445 -0.224323 -0.073508 0.000947 -0.065652 0.044446 0.258589 -0.020645 0.113186 0.119092 -0.116274 -0.054152 0.082480 0.306160 0.365674 -0.273662 -0.216883 0.069012 0.239201 0.181911 -0.090744 -0.027079 0.339299 -0.131627 0.006905 -0.015266 0.076823 0.098341 -0.123421 -0.422463 0.031019 0.245009 -0.197410 0.191441 -0.063461 -0.180183 0.082344 -0.140493 0.020666 0.061923 0.094536 -0.042129 0.122279 -0.001676 -0.063779 -0.033552 -0.095945 -0.023357 -0.156311 -0.157772 0.088612 0.052286 -0.148326 -0.077417 -0.040103 0.371486 -0.165578 0.167137 -0.145331 0.003263 -0.294193 -0.131705 
_mail0_5.11 -0.067481 -0.299791 -0.122736 0.288445 0.027829 -0.056428 -0.081484 -0.105797 0.064670 -0.149839 0.167683 0.114424 0.093831 0.134754 -0.013531 -0.290947 -0.219187 0.086931 -0.046458 -0.076458 -0.080843 -0.046821 0.128391 0.180656 -0.142166 -0.070308 0.172629 -0.018113 -0.050004 0.143857 -0.030455 -0.155321 0.172200 -0.188962 -0.144299 0.087799 -0.059140 -0.058645 0.157394 0.046095 0.111573 0.092277 0.268458 -0.058827 0.236031 0.173858 0.034332 0.042297 -0.164039 0.009870 -0.080183 0.067907 -0.146441 -0.071252 0.063064 -0.005986 0.079586 -0.150313 0.095433 0.050488 0.073968 0.070309 -0.096950 -0.033010 -0.183742 -0.112079 -0.225694 0.079647 0.180040 0.341870 0.139473 0.041484 -0.049523 0.161185 -0.008452 0.203201 -0.209634 -0.136723 -0.138112 0.031110 -0.077788 0.084492 -0.262630 0.016989 -0.018202 -0.195751 0.197146 -0.044076 0.139832 -0.088288 0.024018 0.143898 0.007854 -0.050329 0.221998 -0.101726 0.141594 0.130613 0.011665 -0.212990 -0.120851 0.123025 0.232545 -0.046374 -0.299918 0.152700 0.215063 -0.097134 -0.123491 -0.103250 0.208101 -0.112533 -0.075727 -0.020966 -0.046891 -0.011294 -0.101396 -0.227550 0.021444 0.242150 -0.192926 0.133241 -0.091203 -0.074746 0.001194 -0.124370 0.093681 -0.121112 -0.128333 0.063402 0.051601 -0.009738 -0.127698 0.165787 -0.118653 0.195021 0.061459 -0.081034 0.042091 -0.060312 0.026331 -0.046646 -0.030857 0.243612 0.049093 0.063020 -0.161384 0.256433 -0.019631 -0.076569 
_mail0_5.12 -0.143868 -0.280894 0.058132 0.302161 0.135835 -0.099729 -0.029494 -0.068732 0.008666 -0.167193 0.284881 -0.009160 0.098186 0.128099 0.081178 -0.138267 -0.243645 -0.023341 0.003226 0.115774 -0.072800 -0.017192 0.216143 0.096684 -0.209423 -0.128884 0.082669 -0.090462 0.001497 0.069978 0.015080 -0.201571 0.228110 -0.124469 -0.167535 0.114576 -0.145239 -0.073165 0.043558 -0.052934 0.082587 0.159482 0.290360 0.100677 0.134032 0.157697 0.105385 0.072338 -0.152477 0.089850 -0.119020 0.178008 -0.097503 -0.007258 0.116194 0.033160 0.086445 -0.202477 0.095339 -0.103168 0.105291 -0.056013 -0.211637 0.017775 -0.120982 -0.049282 -0.148842 0.045430 0.007940 0.337974 0.190067 -0.007922 -0.022660 0.252415 0.000656 0.225145 -0.037432 -0.069558 -0.119202 0.049416 -0.051223 0.137679 -0.252793 -0.050514 -0.021999 -0.130523 0.082605 -0.099636 0.132514 -0.135385 -0.036527 0.116058 0.080244 0.043542 0.125069 -0.086601 0.169267 0.215705 0.017177 -0.150997 -0.012751 0.109651 0.231584 -0.231848 -0.286663 0.265252 0.182176 0.082765 -0.056895 -0.128963 0.314203 -0.227890 -0.123261 -0.023242 0.063341 -0.001672 -0.024883 -0.297428 -0.067369 0.153024 -0.218279 0.132172 -0.029678 -0.110676 0.121664 -0.135563 0.025896 0.066496 -0.054699 0.162374 -0.111470 -0.056996 0.017736 0.105544 -0.027691 0.159178 -0.078521 -0.178384 -0.036223 -0.086352 0.091222 0.038757 -0.005874 0.209443 0.061340 0.031588 -0.104785 0.056495 -0.035239 -0.031405 
_mail0_5.13 -0.270642 -0.350948 0.013362 0.171977 -0.024420 -0.198766 -0.001319 0.024478 0.068897 -0.214555 0.373078 0.029545 0.213370 -0.108712 0.100104 -0.265447 -0.023867 0.318554 0.216952 0.003396 -0.184180 -0.154637 0.071940 0.138697 -0.196157 -0.177050 0.410930 -0.218177 0.042615 -0.024829 0.055321 -0.128700 0.141518 -0.363047 -0.155947 0.042335 -0.249100 0.083608 0.149527 0.176421 0.118776 0.266511 0.322686 -0.004919 0.255725 0.148112 0.040833 0.047352 -0.019250 0.124227 -0.093305 0.081192 -0.213487 0.082591 0.278912 0.185211 0.099644 -0.196745 0.228738 -0.215017 0.243972 -0.279099 0.006045 -0.068278 -0.336761 -0.276183 -0.357333 -0.045678 0.146703 0.391346 0.206259 0.022596 -0.235313 -0.040639 0.146148 0.151901 -0.047059 -0.016979 -0.197822 -0.028962 -0.063033 0.221651 -0.058143 0.104442 -0.102535 -0.213538 0.059236 -0.231662 0.061974 -0.096336 0.034394 0.055572 0.344737 -0.028143 0.288388 -0.085050 0.175304 -0.041803 -0.076024 -0.262380 -0.110053 -0.077084 0.197908 -0.013216 -0.324910 0.211971 0.189406 0.228690 -0.324229 -0.140502 0.417058 -0.112356 0.005795 -0.088861 0.107972 -0.136608 -0.049903 -0.384948 -0.519562 0.224813 -0.417009 0.054573 -0.057056 -0.018111 0.151068 -0.251240 0.202290 -0.341278 -0.119379 -0.030034 -0.063227 0.351416 0.007354 0.168729 -0.131226 -0.000424 0.043927 -0.202489 -0.081057 -0.056458 -0.007199 0.031375 -0.240059 0.370968 -0.237296 0.163414 -0.227948 0.281365 -0.173035 0.016252 
_mail0 -0.713956 -0.429560 0.466408 0.207303 -0.050780 0.387986 0.412631 -0.545480 0.437774 -0.227565 0.233057 -0.380086 0.171958 -0.174303 0.280339 -0.751807 -0.487548 0.170599 0.868702 0.199443 0.258571 -0.077354 -0.087896 -0.261596 0.129813 -0.025576 -0.738557 -0.232688 -0.062274 -0.390280 0.116933 -0.737047 0.533049 -0.465550 -0.275299 0.126927 -0.165950 -0.106376 0.753124 0.042157 0.481242 0.873689 -0.141509 0.121895 0.329254 0.805244 0.234484 0.259070 -0.077028 0.300943 -0.730186 -0.038239 -0.559702 -0.214207 -0.209128 0.211457 0.209093 -0.780138 0.673302 -0.524725 -0.261670 0.698726 0.228694 0.448540 -0.285094 -0.635854 0.174151 0.262138 0.513241 0.162861 0.574292 0.291296 -0.828993 -0.232116 -0.771653 0.735349 -0.017983 -0.261682 -0.766598 -0.230204 -0.287145 -0.678365 -0.536437 -0.095872 -0.774639 1.129011 -0.159058 0.464137 -0.015202 -0.250896 0.227876 -0.329606 0.031100 0.200369 0.623759 -0.890620 1.108504 0.382216 -0.230235 0.602371 0.463808 -0.187917 0.171009 0.741152 -0.509654 0.514790 0.196510 -0.349752 0.463344 -0.490475 -0.842511 0.695759 -0.137804 0.105248 -0.396561 0.150820 -0.073851 -0.305495 -0.688008 0.468577 -0.513351 -0.061662 -0.042346 0.319801 0.787709 -0.837924 -0.122531 -0.344429 0.364755 0.388985 -0.696515 0.673902 -0.445495 0.442539 -0.307101 0.166765 -0.045462 -0.726484 -0.462591 -0.360046 -0.877193 -0.111064 -0.290745 0.983609 0.474184 0.634539 -0.345437 0.095862 -0.520570 -0.068756 
_mail1_1.1 -0.221036 0.186330 -0.070512 0.116967 0.055011 -0.226812 -0.134101 -0.163075 0.212844 -0.117359 0.054175 0.107351 -0.038066 -0.019828 0.081811 -0.173685 -0.082965 -0.035110 -0.054166 -0.046527 -0.135490 -0.078925 0.012062 0.132505 -0.078400 -0.132744 0.130925 -0.021205 -0.016844 0.069804 -0.013058 -0.246757 0.205165 -0.029125 -0.245125 -0.122517 -0.091237 -0.052608 0.093824 0.090193 0.013937 0.241749 0.201217 0.121786 0.174404 -0.074243 0.051218 -0.137979 -0.071801 0.000905 -0.050754 0.057016 -0.055653 0.001158 0.085655 0.264157 0.008343 -0.273976 -0.107830 -0.199855 0.118759 0.007854 0.033054 0.009017 -0.123691 -0.163208 -0.202983 -0.092139 0.111743 0.190921 0.108371 0.015638 0.071372 0.110913 -0.000439 0.187805 -0.020793 -0.112815 -0.170103 -0.012529 -0.044862 0.062140 -0.079953 0.318204 -0.024497 -0.039745 0.209580 -0.040224 0.183175 -0.144920 -0.084537 -0.095969 0.008447 0.199800 0.097629 -0.248700 0.018065 -0.055052 -0.023113 -0.063381 0.093712 0.099902 0.049540 -0.163061 -0.162607 -0.017522 0.141308 0.208705 0.085425 -0.049285 0.158707 -0.072888 -0.058979 -0.065284 -0.026915 0.059192 -0.138453 -0.227792 -0.245930 -0.009115 -0.034600 0.225836 0.143545 -0.070920 0.135780 -0.049506 -0.177626 -0.008566 0.028989 0.053742 -0.191745 0.035933 -0.217952 -0.016872 -0.188846 -0.044196 -0.060158 0.025392 0.041811 0.043602 -0.013415 -0.040858 -0.185858 0.257702 -0.073532 0.119631 -0.063034 0.081908 -0.118727 -0.091695 
_mail1_1.2 -0.237656 -0.108476 -0.045946 -0.099281 0.274909 -0.019911 -0.069541 -0.051195 -0.057137 -0.306303 0.261402 -0.018337 0.025550 -0.032157 -0.034216 -0.124189 -0.045349 -0.111006 0.252946 0.036985 -0.098003 -0.369237 0.032228 0.231492 -0.225351 0.164912 -0.053211 -0.283302 0.279211 0.152214 0.151773 -0.240299 0.123095 -0.067279 -0.422107 -0.343016 0.136043 -0.023728 -0.072742 -0.039332 0.038609 0.457665 0.119804 -0.097265 0.051797 0.386852 -0.008647 -0.092331 0.187940 -0.001974 -0.054516 0.103852 -0.329367 -0.058432 0.281402 0.048243 -0.087894 -0.044808 0.148269 -0.488415 -0.020356 0.126767 0.217648 0.293469 0.166736 -0.334869 0.182302 -0.031101 0.290865 0.496082 0.085350 0.167125 0.025218 0.332030 -0.259320 0.243316 0.000018 -0.149549 -0.451035 -0.073709 0.085766 0.045581 -0.454300 0.263512 -0.007708 0.350794 0.394787 0.011182 0.243243 -0.312041 -0.026896 0.061680 -0.107000 0.244938 0.481823 0.179044 0.007650 -0.053641 -0.154623 -0.085181 -0.079577 -0.040706 0.057428 -0.145700 -0.353733 0.251259 0.156648 -0.034643 -0.052519 0.133821 -0.167423 -0.183873 -0.099182 -0.023172 0.027130 -0.061820 -0.046516 -0.316540 -0.021077 0.421312 -0.269425 0.203740 0.212590 -0.250167 0.006130 -0.021732 0.150078 0.028609 -0.277674 -0.113230 -0.174432 0.230925 -0.363419 0.152596 -0.109983 -0.137631 -0.119548 -0.176579 -0.033986 -0.199682 -0.264463 0.027210 -0.230176 0.236340 -0.208358 -0.015778 -0.121641 -0.073567 0.124336 0.380917 
_mail1_1.3 -0.160051 -0.118530 -0.132129 0.206452 0.281548 -0.000012 -0.014781 -0.121507 0.048859 -0.205519 0.152386 0.084522 -0.056625 0.215726 0.187716 0.063851 -0.129620 -0.010175 0.062159 -0.071306 -0.004246 -0.189340 -0.012529 0.102123 -0.380057 -0.226733 0.234047 -0.152184 -0.013121 0.302488 0.067400 -0.348606 0.282939 -0.136642 -0.075803 -0.067227 0.089135 -0.177245 0.083236 0.154090 0.168663 0.071694 0.133823 0.019650 0.054020 -0.012101 -0.018687 0.072706 -0.186587 -0.082400 -0.109884 0.234163 -0.196969 -0.081436 0.182553 0.164297 -0.074069 0.035402 0.145615 -0.229654 0.028728 -0.058700 0.015333 -0.004694 -0.042286 -0.036135 -0.141912 0.128364 0.240486 0.280625 0.109483 0.025937 0.070981 0.215419 0.005182 0.286197 -0.061140 -0.084145 -0.028376 0.021663 -0.185859 0.090644 -0.197629 0.015919 0.112833 0.123369 0.035472 0.035000 0.126699 -0.199898 -0.177844 0.011658 -0.146199 0.228637 0.394319 -0.243184 0.116986 0.171812 -0.145294 -0.246051 -0.037279 -0.157351 0.114459 -0.089466 -0.213587 -0.004777 0.305422 0.191542 0.096074 -0.068428 0.148007 -0.124584 -0.071102 -0.097470 0.148158 0.050241 -0.018732 -0.296552 0.029881 0.028598 -0.074466 0.045699 -0.095698 0.022180 -0.023644 -0.025749 -0.050096 0.034779 -0.025159 0.074397 0.006901 -0.014249 -0.177828 -0.040722 -0.071412 0.054822 -0.005526 -0.270456 0.205783 -0.102573 0.056201 0.020786 0.070894 0.252102 -0.000551 0.243297 -0.109305 0.094828 0.072547 -0.033724 
_mail1_1.5 -0.216368 0.043003 -0.209374 0.011559 0.092465 -0.161657 0.095437 -0.086167 0.153087 -0.261874 0.147922 0.069762 -0.093751 0.022490 0.130954 -0.126505 -0.163331 -0.049091 0.067975 -0.093585 -0.147236 0.181326 -0.005940 -0.009308 -0.115739 -0.190217 0.174415 -0.051577 0.043688 0.178090 0.188240 -0.097994 0.227569 -0.246429 -0.140421 0.065630 -0.132729 -0.065230 -0.001297 0.141292 0.284923 0.274369 0.188140 -0.004848 0.046026 0.237244 0.008936 -0.158494 0.036241 0.031138 -0.197996 0.254256 -0.096443 -0.105886 0.161493 0.157451 0.000931 -0.304140 -0.002539 -0.222802 -0.080912 -0.036352 0.155705 0.051930 0.113605 -0.050007 -0.056099 0.150999 0.294451 0.214072 0.022639 -0.089493 0.098747 0.153631 -0.148798 0.289908 -0.134305 -0.181270 -0.217345 -0.059380 0.071866 0.158968 -0.262824 0.248746 0.052140 -0.075986 0.265968 0.159197 0.252999 0.034997 0.028937 0.075634 -0.155741 0.302019 0.302384 -0.209376 0.070165 -0.152308 -0.008917 -0.060649 0.047693 -0.045404 0.024599 -0.104047 -0.112040 0.095488 0.045638 0.265036 -0.109895 -0.092664 0.204453 0.196832 -0.056434 -0.028039 -0.039419 -0.048119 -0.018141 -0.298943 -0.131406 0.228356 -0.064427 -0.005488 0.019019 -0.101488 0.025767 -0.182739 -0.223562 -0.145334 -0.120380 -0.033149 -0.011398 0.268677 -0.379026 0.013486 0.026284 -0.087030 -0.111496 -0.073904 0.036518 0.074449 0.042190 0.125133 -0.094164 0.305584 -0.016979 0.170404 0.067321 0.122890 0.098232 -0.042696 
_mail1_1.6 -0.381192 0.120525 0.056936 0.081462 0.289956 -0.324038 -0.080283 -0.132957 0.167816 -0.247395 -0.077058 -0.189083 0.140879 -0.021906 0.139515 -0.427714 -0.103885 0.028916 -0.041995 -0.009688 -0.134139 0.021550 0.060856 -0.081876 -0.118476 -0.489822 0.265635 0.001143 0.072881 0.228455 0.039684 -0.319308 0.487931 0.020796 -0.163429 -0.116421 0.060515 -0.172859 0.260961 0.028372 0.385470 0.292217 -0.004109 0.076413 0.149541 0.077312 0.033004 -0.082635 0.021337 -0.166072 -0.424732 0.109522 -0.281239 0.023788 0.118698 0.045137 0.073331 -0.055810 0.010144 -0.369067 0.041756 0.023319 0.082124 -0.191710 0.085723 -0.014947 0.162962 0.070216 0.216896 0.214786 0.230514 -0.174195 0.071509 -0.003613 -0.085562 0.437647 -0.026507 -0.184508 -0.170680 -0.131303 -0.005394 0.020385 -0.188737 0.247540 0.306075 0.038188 0.086822 0.074880 0.339100 -0.210798 0.047663 0.280219 -0.339534 0.201371 0.235096 -0.271660 0.147515 0.103565 0.013616 0.180063 -0.061294 -0.003127 0.032255 -0.042935 -0.153359 0.162541 0.083754 0.124306 0.064984 0.247411 -0.289036 0.061106 -0.286517 -0.162527 0.099894 0.078003 -0.071244 -0.246903 -0.366503 0.307875 0.026270 0.165207 -0.149399 -0.000708 0.233873 -0.153873 -0.377885 0.083893 0.117221 0.000280 -0.031116 0.128846 -0.332093 -0.086434 0.133866 0.050964 -0.154159 -0.456212 0.077689 0.015915 -0.154870 0.151750 -0.115884 0.224925 -0.110583 0.424859 -0.299936 0.086200 -0.000706 -0.173085 
_mail1_1.7 -0.092462 0.000849 -0.029347 0.129846 0.424693 -0.055552 -0.184328 -0.002269 0.081930 -0.096481 -0.098847 -0.189940 0.387739 0.264530 -0.013463 -0.039035 -0.200043 -0.048965 0.052722 0.010783 -0.083758 -0.054923 0.060491 0.035200 -0.125433 -0.445885 0.010756 -0.142881 0.155411 0.113631 -0.065378 -0.389544 0.352162 -0.085013 -0.184750 -0.057692 0.039300 -0.360918 0.127425 -0.058527 -0.005993 0.204078 0.244607 0.078515 0.031346 0.109144 0.064719 -0.141216 -0.098323 -0.270701 -0.436881 0.155209 -0.272611 -0.152068 -0.055050 0.221525 0.072586 0.024731 0.112819 -0.178095 -0.144283 -0.040807 -0.159125 0.207541 0.045457 -0.211952 0.016121 0.017477 0.066268 0.581839 0.256707 0.073726 0.021186 0.121235 -0.049848 0.400782 -0.217514 -0.069207 -0.455572 -0.240196 -0.224786 0.145544 -0.254652 -0.056028 0.021723 0.317758 0.210324 -0.046136 0.281479 0.087764 -0.060607 0.390754 -0.159019 -0.080868 0.242554 -0.050312 0.136385 -0.088015 -0.285112 0.095281 -0.157438 0.083258 0.305869 -0.183964 -0.027034 0.172273 0.090929 -0.023452 -0.162767 -0.089094 -0.148954 0.029745 -0.081619 -0.026964 0.073801 0.217191 -0.014040 -0.278252 -0.041802 0.198635 -0.062556 0.362922 -0.120457 0.071455 -0.010681 -0.297485 -0.128961 0.089828 -0.177865 0.070369 0.115015 0.136437 -0.392881 0.162947 -0.142125 0.009835 -0.213630 -0.143539 0.271796 -0.161863 0.042260 0.290648 0.076690 -0.031330 -0.035382 -0.074933 -0.357651 0.057758 -0.200538 -0.064425 
_mail1_1.9 -0.370794 0.059767 -0.134615 -0.061854 0.291565 -0.285642 -0.149118 -0.006880 0.198115 -0.418472 0.022943 -0.076776 0.253035 -0.106037 -0.016042 -0.246532 -0.018322 -0.270937 -0.027786 0.093304 -0.174171 0.216239 -0.038447 0.112174 -0.421557 -0.416525 -0.010052 -0.045890 0.037864 0.158441 -0.077954 -0.011184 0.153442 -0.226280 -0.180080 -0.150843 -0.057238 -0.233381 0.190416 0.080858 0.210743 0.386384 0.332604 -0.100207 0.080696 0.102110 0.159548 0.016036 -0.065228 -0.048520 -0.100627 0.073901 -0.426748 -0.045594 0.161577 0.158376 0.044075 0.003840 0.165705 -0.247538 -0.016368 -0.169757 -0.228174 0.089060 -0.053654 -0.048949 0.264140 -0.071965 0.024152 0.287744 -0.123067 0.005973 0.149868 0.225961 -0.001651 0.599492 -0.034418 -0.354588 -0.104608 -0.071173 -0.194583 0.000136 -0.246867 0.047796 0.202185 0.090349 0.143254 0.111946 0.121122 0.192758 -0.009402 0.094709 -0.141041 -0.144995 0.160336 -0.110716 0.142821 0.070168 -0.261327 0.235583 -0.243398 0.233078 -0.314553 -0.110264 -0.212458 -0.104100 0.172350 0.029255 -0.089983 0.034150 0.013081 0.096404 -0.220792 -0.127886 0.037794 -0.032670 0.072391 -0.325383 -0.121598 0.180939 0.025336 0.206963 0.102389 -0.089081 -0.074727 -0.171853 -0.035802 -0.116580 -0.079529 -0.178612 0.140679 0.198782 -0.166979 -0.169945 0.138042 0.052126 -0.104494 -0.293167 0.127623 -0.162939 0.002676 0.034719 -0.147518 0.502466 0.110864 0.175445 -0.064640 0.087556 -0.338111 -0.255765 
_mail1_1.10 -0.170173 -0.021242 -0.049074 0.162734 0.098009 -0.539787 -0.071188 -0.287974 -0.044551 -0.253174 -0.134584 0.023229 0.020995 0.062774 0.050332 -0.420585 -0.101077 -0.167534 0.096881 0.051974 -0.018939 -0.115990 -0.111014 0.002474 -0.188851 -0.438970 0.081694 -0.052516 0.186810 0.332752 0.011805 -0.357179 0.383995 -0.264367 -0.230668 0.023291 0.179315 -0.280173 -0.098179 -0.040774 0.112461 0.246470 0.001352 0.068810 -0.021219 -0.063582 -0.167797 0.084654 -0.067174 -0.207409 -0.081266 0.045841 -0.219786 -0.010226 -0.040340 0.102178 0.008920 0.037614 0.142398 -0.081896 -0.378179 0.023050 0.142220 0.003987 -0.008772 0.107860 0.285318 0.126089 0.238789 0.509905 0.357068 -0.106426 0.098880 0.213311 -0.270211 0.428196 -0.376565 -0.449481 -0.324556 -0.007521 -0.007834 -0.011521 -0.261702 0.150721 0.158390 0.406947 0.097746 0.084572 0.365201 -0.126898 0.328052 0.215476 -0.382872 -0.069399 0.470340 -0.104689 -0.024994 -0.191724 0.112514 0.102004 0.094670 -0.012032 -0.042685 -0.086367 -0.163278 0.074758 0.286305 -0.297104 0.162381 0.160211 0.071669 0.065496 -0.044075 -0.252220 0.025026 -0.218893 -0.008745 -0.326828 0.067886 0.241637 -0.042346 0.368308 -0.095656 0.224565 0.206002 -0.099746 -0.364062 0.135168 0.061716 0.016146 0.021610 -0.148342 -0.403483 -0.215243 -0.266547 -0.182665 -0.156338 -0.195366 0.207500 -0.089742 0.122613 0.255758 -0.005867 0.203644 0.073407 0.168646 -0.040092 0.203750 -0.032902 -0.362998 
_mail1_1.11 -0.326087 -0.136067 -0.134121 0.135970 0.264012 -0.304543 0.137490 -0.020455 0.129521 -0.215938 0.134287 0.092346 -0.004362 0.443721 0.007490 -0.215526 -0.339265 0.208674 0.021545 -0.120534 0.005620 -0.276766 0.463877 -0.117238 -0.248477 -0.061210 0.106554 0.107160 -0.263785 0.289929 -0.016005 -0.111916 0.334845 -0.278126 0.061986 -0.194581 0.182640 -0.165996 0.229427 0.180223 0.046039 0.079636 0.200353 -0.203221 0.282798 0.148199 -0.033877 0.192961 0.062483 -0.280580 -0.278021 0.259779 -0.095087 0.024962 0.001161 0.221905 -0.017438 -0.003841 -0.071856 0.113722 -0.010244 -0.135482 0.013928 0.143382 0.233325 -0.020912 -0.062578 0.176193 0.394417 0.724277 0.237093 0.083332 0.233638 0.109209 -0.032790 0.363409 -0.091609 -0.377048 -0.405397 0.031454 -0.207210 -0.173798 -0.171967 -0.054663 0.162920 0.348646 0.106134 0.164892 0.361828 -0.066472 0.133842 -0.092792 -0.297756 0.390955 0.454065 0.065217 0.009323 0.164533 -0.109013 -0.211391 -0.000837 -0.148931 -0.129408 -0.005144 -0.059388 0.154547 0.520412 -0.184852 0.080448 -0.279196 0.137628 -0.096858 0.068270 -0.124586 0.031166 0.201145 0.147902 -0.244166 0.050246 0.083746 -0.008484 0.100991 -0.073638 -0.083929 0.031191 -0.214094 -0.209150 0.386074 -0.088907 0.380268 -0.254365 0.255983 -0.049313 -0.074148 -0.153696 0.145432 -0.100976 0.095685 0.090065 -0.211871 -0.203157 -0.081953 0.074744 -0.126160 0.014609 0.153063 -0.001977 -0.090809 -0.065129 -0.045764 
_mail1_1.13 -0.233747 -0.071821 0.008596 0.161496 0.202611 -0.083760 -0.136699 -0.356063 -0.162812 -0.005876 -0.249850 0.145564 0.360660 0.119474 -0.058420 -0.296250 -0.040416 -0.149932 0.104356 -0.006673 0.024467 0.050747 -0.014863 0.000774 -0.250418 -0.048583 0.030887 0.026381 0.160020 0.187860 0.048614 -0.268181 0.557462 -0.482574 -0.344125 -0.026701 0.027934 -0.159168 0.126191 0.083504 0.132908 0.374659 -0.101596 -0.129773 -0.087388 0.045628 -0.107696 -0.108213 -0.333507 -0.265184 0.029156 0.014685 -0.127445 0.113061 -0.094430 0.207667 0.013175 -0.133855 0.068139 -0.159108 -0.162766 0.105776 -0.086997 0.191722 -0.081112 0.231678 0.054699 -0.177751 0.218367 0.313874 0.340146 -0.021365 -0.139135 0.017246 -0.057578 0.389746 -0.147041 -0.207392 -0.247226 -0.070201 -0.187547 0.222245 -0.053901 0.172509 0.234609 0.159307 0.029989 -0.019055 0.250986 -0.048168 0.105229 0.130644 -0.123657 -0.132981 0.288492 -0.022987 0.063443 -0.145570 0.350663 0.006817 0.193057 -0.035334 -0.160633 -0.316800 -0.089078 0.280666 0.196175 -0.011980 0.257590 0.420173 0.368970 -0.149354 -0.219050 0.091568 0.061633 -0.051345 0.296973 -0.207101 0.098407 0.426609 -0.192671 0.397209 0.154643 0.236447 -0.218809 -0.233571 -0.077172 0.130758 -0.202096 0.008672 -0.015203 -0.179773 -0.498263 -0.019971 -0.006303 0.049601 -0.281485 -0.229363 0.331601 0.048765 -0.016235 0.112360 -0.092144 0.178922 0.011896 0.207183 -0.008543 0.087056 0.027576 -0.287668 
_mail1_1.14 -0.143816 -0.084890 -0.126422 0.160229 0.105836 -0.038469 -0.092836 -0.065900 0.043721 -0.095035 0.122327 0.007144 0.155997 0.113415 0.086122 -0.160284 -0.124049 0.002649 0.048334 -0.023663 -0.032002 -0.039946 0.015344 0.101555 -0.211380 -0.127449 0.096700 -0.098652 0.006531 0.097965 -0.025072 -0.179591 0.225115 -0.166498 -0.110271 -0.023008 0.067255 -0.098902 0.124903 -0.007343 0.102089 0.207139 0.166927 0.023859 0.026185 0.036502 -0.055499 -0.013798 -0.102609 -0.042678 -0.118476 0.126412 -0.121960 0.005413 0.052193 0.087312 0.037373 -0.017707 0.092406 -0.103371 0.080158 -0.075489 -0.082618 0.054372 -0.091310 -0.083333 -0.152786 0.021774 0.151204 0.250895 0.126909 -0.034117 -0.038516 0.114499 -0.061201 0.278827 -0.078374 -0.112551 -0.184864 0.038585 -0.073935 0.133451 -0.134939 0.119669 0.085129 -0.060122 0.050395 -0.020396 0.148604 -0.111421 -0.009289 0.086683 -0.092892 0.091731 0.198582 -0.068636 0.125480 0.071109 -0.108715 -0.112956 -0.022738 0.117737 0.115514 -0.111472 -0.182259 0.046493 0.246131 0.096603 -0.011419 -0.107870 0.215930 -0.174810 -0.064527 -0.023590 0.008079 0.032004 0.031080 -0.173582 -0.038019 0.195971 -0.168200 0.226045 -0.006893 -0.040988 0.018120 -0.104855 -0.064768 0.021472 -0.073356 0.057124 0.047237 0.000497 -0.168783 0.066090 -0.109247 0.051246 -0.054507 -0.092765 0.118850 -0.017910 -0.040903 -0.036615 -0.039649 0.152549 -0.037696 0.077490 -0.062904 0.062234 -0.068046 -0.099110 
_mail1_1.15 -0.445901 0.327819 -0.240922 0.100900 0.239600 -0.400312 -0.206037 -0.308461 0.079585 -0.210352 -0.112546 -0.133483 0.190559 0.037001 -0.041624 -0.318056 -0.054131 -0.170757 0.109908 0.017554 -0.079239 -0.162178 -0.156406 -0.155425 0.054958 -0.420926 0.136546 -0.029378 0.252056 0.043807 -0.092741 -0.309097 0.526494 -0.237498 -0.006067 0.146956 0.089615 -0.269853 0.235823 0.014154 0.014165 0.243028 0.143747 -0.044840 0.120978 0.044096 -0.194338 -0.212226 0.113176 -0.225961 -0.158838 -0.146778 -0.149753 0.059378 -0.081888 0.381887 0.036209 -0.026153 0.035049 -0.281297 -0.263165 0.001546 -0.054463 0.218830 -0.144740 0.143638 0.104321 -0.115779 0.204456 0.405170 0.089702 -0.213692 -0.049379 0.088201 0.087169 0.373538 -0.308017 0.005076 -0.226602 -0.116938 -0.065788 0.064865 -0.358876 0.291098 0.048813 0.174881 0.092423 0.084626 0.274293 -0.078502 0.168712 0.186928 -0.048929 -0.078452 0.194225 -0.109978 -0.233639 -0.168618 0.091946 0.011911 0.140685 0.169919 -0.444117 -0.055620 -0.095876 0.131418 0.160107 -0.032982 -0.061046 0.153918 -0.073154 -0.165975 -0.360358 -0.187313 0.115813 0.073430 0.252171 -0.180447 -0.035063 0.308948 -0.102791 0.687197 -0.041870 -0.078606 -0.003787 -0.297845 -0.303353 0.174334 -0.133366 -0.102723 -0.108562 0.179466 -0.560203 0.023036 0.165847 -0.043344 -0.087996 -0.127834 0.296629 -0.214263 -0.037478 0.165252 0.033227 0.242812 -0.076325 -0.011575 -0.140055 0.246120 -0.523034 -0.225193 
_mail1_1.16 -0.234597 0.114872 -0.002102 0.123144 0.187339 -0.074577 0.005422 -0.059000 0.138742 -0.255610 0.113122 0.035732 0.018432 -0.054715 -0.107261 -0.115903 -0.209127 0.002572 -0.014065 -0.084679 0.034926 0.016866 -0.067383 0.002235 -0.129067 -0.327302 0.125839 -0.399491 0.205852 0.029206 0.139579 -0.192521 0.113225 -0.174985 -0.169268 0.101319 0.218756 0.028660 -0.059386 0.098660 0.147054 0.221532 -0.005829 0.063178 0.148950 0.283605 -0.095426 -0.037348 -0.007527 -0.010199 -0.160250 0.177122 -0.097618 0.133810 0.146670 0.103522 0.082915 -0.139110 0.222654 -0.095781 0.051053 -0.139129 -0.055995 0.186720 -0.045277 -0.045433 0.064572 -0.009270 0.297677 0.319911 0.130714 -0.118868 0.005665 0.161964 -0.091704 0.299627 -0.135350 -0.145158 -0.234081 -0.027752 0.038914 0.006919 -0.298550 0.222276 0.232524 0.052042 0.035510 0.012416 0.202552 -0.042643 -0.041607 0.097784 -0.124156 0.030956 0.419739 -0.139329 0.024811 0.244305 -0.231156 -0.084289 0.081847 0.258976 0.069606 -0.077102 -0.272880 -0.095892 0.057236 -0.004688 -0.035488 -0.060774 0.017853 -0.149182 0.067113 -0.130029 0.099419 -0.132582 -0.064974 -0.312347 -0.053195 0.217870 -0.024540 0.179401 0.003648 -0.049451 0.087768 -0.077182 0.004368 -0.027775 -0.266950 -0.056882 -0.231863 -0.093977 -0.388046 0.011879 -0.264400 0.130702 0.012179 -0.273488 0.120279 0.018951 -0.122114 0.097933 -0.071045 0.105044 -0.043414 0.223707 -0.127607 0.046721 -0.054751 -0.171056 
_mail1_1.17 -0.128985 -0.042877 -0.097938 0.209225 0.072502 -0.208346 -0.073603 -0.006866 0.173614 -0.227839 0.203656 -0.138186 -0.075876 0.127545 -0.015792 -0.129220 -0.123374 -0.039708 0.017434 -0.072712 -0.064375 -0.019122 -0.033234 -0.021198 -0.299578 -0.165041 0.039262 -0.199714 0.084437 0.268529 -0.058120 -0.160538 0.166434 -0.055860 -0.145217 -0.085790 0.073338 -0.228012 0.014251 0.059215 0.246629 0.267218 0.159622 0.110487 0.069798 0.037404 -0.034229 0.051271 -0.082434 0.011545 -0.119677 0.264053 -0.087240 -0.044976 0.197949 0.276160 0.127827 0.049842 0.171692 -0.068976 0.040376 0.062416 -0.017423 -0.024187 -0.043177 -0.052009 0.048909 0.084662 0.028829 0.345371 0.179025 -0.176251 0.053422 0.040710 -0.088211 0.312977 0.025367 -0.191494 -0.092168 0.200409 -0.142376 0.029107 -0.163508 -0.052702 0.106334 -0.137716 0.021076 0.058203 0.389629 -0.180791 -0.020516 0.016997 -0.172348 0.087154 0.408558 -0.087756 0.200250 0.296469 -0.079043 -0.064946 0.112753 0.043174 0.313319 -0.081089 -0.180309 0.131581 0.327335 0.125392 0.162095 0.057356 0.194609 -0.077462 -0.108690 -0.112800 0.070654 0.136351 0.011982 -0.211020 -0.123098 0.262601 0.028531 0.127550 0.032182 -0.098948 0.064555 -0.094004 -0.251619 -0.076727 -0.078608 0.118737 0.104182 0.111509 -0.068938 -0.128084 -0.144834 0.104011 -0.100981 -0.236760 0.002937 0.014735 -0.001112 0.201602 -0.186684 0.230288 -0.034297 0.251115 -0.090603 -0.029975 0.003966 -0.158664 
_mail1_1.18 -0.393556 0.122596 -0.241108 0.002348 0.254355 -0.201191 0.045004 0.067229 -0.032692 -0.514844 0.073014 0.020208 0.269314 0.087347 -0.003423 -0.166594 -0.068861 -0.256454 0.030092 0.118487 0.013036 -0.096085 -0.062549 0.190554 -0.392058 -0.153278 -0.195368 -0.127209 0.093212 0.238214 -0.199934 -0.308740 0.099540 -0.477805 -0.072751 -0.172883 0.165020 -0.205851 -0.063382 0.056830 0.272651 0.212354 0.214911 0.033713 0.132522 0.048138 0.066135 -0.030305 0.035637 0.097728 0.066809 0.213063 -0.280945 -0.155355 0.258241 0.410331 0.058510 0.124359 0.285576 -0.353933 -0.125323 -0.038263 -0.125776 0.208271 -0.125632 0.243063 0.137424 0.187605 0.101138 0.227763 0.082213 -0.051131 0.097104 0.151292 -0.133567 0.327160 -0.022098 0.007922 -0.057205 -0.003605 -0.047468 0.016086 -0.350054 0.123907 0.391579 0.149509 0.160665 0.090839 0.246976 0.100521 -0.234246 0.108072 -0.207173 0.116893 0.428492 -0.024680 0.115600 0.291508 -0.346319 0.225843 0.109773 0.296986 0.101170 0.057469 -0.276055 0.098708 0.303581 0.056141 0.120365 0.166070 0.094136 0.028230 -0.122737 -0.268667 0.059705 0.107933 -0.190067 -0.115228 -0.086964 0.089361 0.020842 0.027480 -0.034947 0.069226 0.150859 0.072202 -0.266332 0.009035 -0.143019 -0.025313 0.046695 0.300995 -0.063027 0.067394 -0.081375 -0.050153 -0.281191 -0.405512 0.493367 -0.189536 0.044309 0.170768 -0.225343 0.346332 0.003242 0.089306 -0.020826 -0.012487 -0.238608 -0.209175 
_mail1_1.19 -0.151996 -0.144274 -0.138674 0.141561 0.093910 -0.054052 -0.091464 -0.065444 0.089633 -0.106613 0.122606 0.002570 0.160085 0.121454 0.091212 -0.137489 -0.123812 -0.051306 0.072715 -0.043325 -0.006081 -0.073994 0.033961 0.112587 -0.192929 -0.112043 0.107625 -0.072937 -0.014339 0.088972 -0.016237 -0.154177 0.218688 -0.162061 -0.138621 -0.023958 0.027555 -0.117834 0.095944 0.034547 0.066027 0.178627 0.168188 0.020748 0.008090 0.055076 -0.035433 0.030662 -0.119004 -0.035314 -0.103638 0.146278 -0.068069 -0.000205 0.046369 0.091168 0.032749 -0.032129 0.109452 -0.119591 0.078925 -0.092507 -0.113787 0.048876 -0.073501 -0.057137 -0.141568 0.023040 0.129100 0.250203 0.106529 -0.022977 -0.053743 0.127964 -0.038459 0.301176 -0.066312 -0.114784 -0.168707 0.007996 -0.054232 0.114709 -0.114922 0.102598 0.092945 -0.060787 0.014117 -0.015766 0.123631 -0.142005 -0.034596 0.076314 -0.090162 0.088394 0.186731 -0.081160 0.116760 0.112389 -0.147464 -0.094801 -0.004866 0.121449 0.151461 -0.141967 -0.188127 0.049828 0.233980 0.089533 -0.015130 -0.101124 0.210857 -0.161093 -0.058851 -0.026411 -0.011429 0.007856 0.045149 -0.222928 0.000470 0.161044 -0.149981 0.252339 -0.017329 -0.033095 0.008113 -0.117588 -0.047963 0.004824 -0.061343 0.012784 0.046581 0.041622 -0.142610 0.070563 -0.119154 0.041298 -0.081774 -0.105703 0.140915 -0.003392 -0.028600 -0.034297 -0.007388 0.201171 0.010888 0.078998 -0.065624 0.078496 -0.099955 -0.091262 
_mail1_1.20 -0.234831 -0.150380 -0.163215 0.191136 0.061504 0.137577 -0.080515 -0.039183 0.120238 -0.075713 -0.000508 0.111089 0.005116 0.122576 0.115479 -0.173393 -0.071031 -0.111759 -0.025054 -0.068448 -0.065517 0.014108 0.047251 -0.058478 -0.056850 -0.018497 0.108381 -0.027989 -0.035651 0.080571 0.080245 -0.224509 0.208999 -0.096597 -0.158693 -0.072424 0.087873 -0.054271 0.136564 -0.079583 0.084129 0.120823 0.123705 -0.101588 -0.093162 -0.107397 -0.113980 0.069670 -0.049746 -0.113594 0.000717 0.151294 -0.070968 -0.058551 -0.018609 0.080196 0.048213 0.000130 0.089951 -0.080966 -0.083662 -0.160741 -0.129658 0.065987 -0.115177 -0.008605 -0.171542 0.062016 0.188029 0.265041 0.287569 0.102902 0.000062 0.081713 -0.106659 0.303867 0.071629 -0.111916 -0.287602 -0.014609 -0.104452 0.083912 -0.105429 -0.020256 0.185325 -0.033793 0.020398 0.097839 -0.076553 -0.120130 -0.042681 -0.004599 -0.104134 0.088673 0.241547 -0.132038 0.061068 0.058415 0.002183 -0.116861 -0.056697 -0.031478 0.171253 -0.095417 -0.151334 -0.080686 0.229939 0.126942 0.031836 0.005625 0.259816 -0.028752 -0.068425 -0.038474 -0.059316 0.058954 0.074004 -0.143936 -0.024147 0.136493 -0.189163 0.125777 -0.056175 0.035686 0.093353 -0.123538 0.005996 -0.097839 0.024189 -0.024637 0.072283 -0.065492 -0.245559 0.004107 0.019358 0.004691 -0.010862 -0.107687 0.008475 0.000310 0.094416 -0.018652 -0.032505 0.186725 -0.045926 0.030618 -0.088957 -0.036245 -0.139355 0.026177 
_mail1_1.21 -0.278089 0.008939 -0.011376 0.117515 0.197881 -0.176933 -0.228418 -0.092115 0.191020 -0.311084 0.073529 -0.065196 -0.018115 0.030107 0.099277 -0.106084 -0.279284 -0.205082 0.078533 0.077096 -0.112052 -0.193745 -0.094975 0.003640 -0.153007 -0.375364 0.164481 -0.097150 0.143472 0.126179 0.093486 -0.298496 0.172728 -0.098974 -0.051496 -0.186152 -0.002020 -0.115650 -0.017850 -0.032817 0.199511 0.030627 0.159349 -0.033384 0.083167 0.085153 0.067301 -0.079772 -0.088260 -0.082021 0.097633 0.168612 -0.036520 -0.064118 0.030634 0.242138 0.077990 -0.327205 0.043489 -0.228378 0.047782 -0.054223 -0.099376 0.065229 -0.156571 -0.145589 -0.061246 -0.095020 0.270896 0.203409 0.081445 0.020165 -0.068530 0.173952 0.053235 0.348268 -0.060441 -0.223211 -0.110712 -0.211131 -0.164158 0.125757 -0.255637 0.295117 0.196985 0.132143 0.179865 0.207610 0.161860 -0.111162 0.110652 0.082739 -0.160847 0.153333 0.266972 -0.157795 0.122056 0.165855 -0.098555 -0.214844 0.100823 -0.022233 0.109833 -0.014155 -0.042582 0.130304 0.078014 0.153173 -0.016341 -0.073928 0.170169 0.056154 -0.098143 -0.128297 0.160656 0.000930 0.051289 -0.322792 -0.290390 0.013521 -0.098461 0.203917 -0.141612 0.060830 0.069794 -0.100850 -0.019180 -0.069892 -0.007409 -0.140365 0.095224 0.132502 -0.252649 0.032048 -0.114842 -0.062924 -0.086283 -0.076343 0.185186 -0.022580 0.020016 -0.095733 -0.003249 0.196608 0.010598 0.146146 -0.059630 0.230701 -0.061946 -0.256143 
_mail1_2.4 -0.319558 0.130229 -0.045183 0.036213 0.226064 -0.406949 -0.113767 -0.056318 0.348264 -0.253353 0.041055 -0.052978 -0.178891 0.182192 -0.035080 -0.284961 -0.092946 0.048854 -0.209649 -0.112826 -0.156556 0.099659 -0.058241 0.117164 0.051411 -0.164329 0.374394 -0.215474 0.051717 0.337354 0.238375 -0.369603 0.363242 -0.209095 -0.122031 -0.006766 -0.086932 -0.030931 -0.020033 0.282108 0.353200 0.347739 0.213901 -0.010135 0.278266 -0.094597 -0.050796 0.234695 -0.016403 -0.183390 -0.243146 0.102270 -0.196708 0.127112 0.083561 0.098975 0.008104 -0.219134 0.081687 -0.299634 0.075465 0.123087 0.031769 0.127269 0.203039 0.049576 0.024533 0.197216 0.218789 0.161522 0.116861 -0.106322 0.042785 0.167871 -0.076295 0.267026 -0.243581 -0.524395 -0.282645 -0.011817 0.000330 0.160836 -0.248599 0.450139 0.044432 -0.054510 0.300107 0.185724 0.375322 -0.267595 0.193503 -0.077331 -0.290225 0.299498 0.636343 0.014332 0.361626 -0.209151 0.036524 -0.113372 0.007925 -0.075307 0.011726 -0.148413 -0.245971 0.082804 0.156975 -0.043735 0.018612 0.045786 -0.117849 0.253513 -0.125540 0.000456 0.091721 -0.052168 0.108611 -0.042598 -0.394133 0.194918 -0.047876 0.098696 -0.002439 0.202274 0.168935 -0.312181 0.070799 -0.133960 0.148333 -0.071962 -0.065230 0.227244 -0.503475 -0.059868 -0.100277 -0.094318 -0.011914 -0.258784 0.205835 0.013830 -0.014095 -0.068138 -0.124278 0.331375 -0.132473 0.184746 0.018992 0.321008 -0.181573 -0.171545 
_mail1_2.5 -0.196388 0.064180 -0.151508 0.113131 0.225245 -0.087265 -0.099579 -0.295698 0.252305 -0.118409 0.005811 -0.061304 0.159228 -0.120830 -0.019446 -0.251661 -0.178074 -0.074981 -0.113732 0.100928 0.105914 0.106818 -0.001459 0.012619 -0.109455 -0.324819 0.145589 -0.269220 0.144556 0.072990 0.056017 -0.209719 0.368732 -0.133767 -0.253781 0.082313 0.155049 -0.223013 0.115040 -0.040742 -0.129700 0.190739 0.076620 0.063170 0.070407 0.153784 -0.208855 0.185232 -0.123057 0.092385 -0.190180 -0.040120 -0.251529 0.010291 0.085483 0.152435 0.128964 0.010095 0.118113 -0.058317 -0.188642 0.135618 -0.057002 0.042166 0.001120 0.112791 0.025387 -0.066544 0.115716 0.162517 0.310336 -0.119874 0.054008 0.060137 -0.108529 0.430583 -0.281427 -0.210406 -0.034076 0.008290 -0.112502 0.171273 -0.138620 -0.009457 0.216459 0.076041 -0.021653 0.201774 0.312745 -0.385183 -0.080817 -0.048839 -0.117436 -0.048652 0.322463 -0.095172 0.227587 0.062391 0.006157 0.016010 -0.123185 -0.002281 0.150314 -0.044777 -0.067331 -0.043851 0.214750 -0.045364 0.053747 0.108419 0.123654 -0.056519 -0.292931 -0.085568 0.113015 0.067836 0.030295 -0.191595 -0.095292 0.263164 0.006918 0.352450 0.053104 -0.029912 0.012631 -0.214040 -0.075317 0.087846 -0.142547 0.131188 0.099576 0.037710 -0.289063 0.086349 -0.000297 0.051981 -0.018956 -0.238285 0.079970 0.145068 -0.113134 0.025169 -0.048058 0.129362 0.178018 0.136052 -0.155471 0.203069 -0.144610 -0.086039 
_mail1_2.6 -0.246384 0.234510 -0.074534 0.355922 -0.002344 -0.582665 -0.021209 -0.198997 0.281845 -0.098792 0.199182 0.066066 -0.108613 -0.120738 0.201850 -0.140093 -0.284398 0.029901 -0.085071 -0.038240 0.375835 -0.094931 0.081690 0.325917 0.028198 -0.256898 0.134035 -0.166615 0.297620 0.270824 0.194479 0.130576 0.338584 -0.068372 -0.128193 -0.130756 -0.097620 -0.216711 0.223682 0.042247 0.480522 0.458600 0.187329 -0.109034 0.241805 0.114430 0.014707 -0.118910 -0.155872 -0.173738 -0.211502 -0.049264 -0.228511 -0.217803 -0.028443 0.222940 0.111851 -0.292869 0.029496 -0.425463 0.005327 0.028002 -0.046551 -0.008837 0.080809 -0.031294 0.086741 0.288248 0.137691 0.326056 0.033078 -0.068608 0.041546 0.192177 -0.031503 0.441295 -0.307431 -0.244674 -0.231174 -0.231461 -0.421084 -0.076937 -0.285769 -0.099754 0.078992 0.297792 0.011736 0.007803 0.265710 0.022023 0.258614 0.141838 -0.130614 -0.293078 0.588846 -0.281414 0.077697 -0.117695 0.057715 -0.132280 0.066834 0.197542 -0.179727 0.162937 -0.223951 0.024707 -0.059815 -0.046262 0.096013 0.320531 -0.150144 0.109860 -0.482415 -0.254063 0.146223 0.227033 0.158620 -0.015071 -0.064518 0.278009 -0.136490 0.598960 0.205023 -0.292233 0.077187 -0.633286 -0.225894 -0.038785 -0.444413 0.143952 0.006033 0.206319 -0.545476 0.386648 0.053051 -0.068581 -0.130606 -0.035811 0.231227 -0.144857 -0.067212 -0.126474 -0.086657 0.269756 -0.137994 0.123249 0.095891 0.129978 -0.317915 -0.223489 
_mail1_2.7 -0.267593 -0.073910 -0.155146 0.113459 0.033158 -0.197247 -0.007529 -0.141125 0.191444 -0.069126 0.118173 -0.078186 0.005516 -0.029175 0.233190 -0.106186 -0.273091 -0.150866 -0.021262 0.132553 0.076741 -0.316431 -0.070327 0.035935 -0.146956 -0.168713 0.006933 -0.126694 0.231121 -0.049385 -0.130757 -0.191522 0.560537 -0.031854 -0.037989 -0.039453 0.130608 -0.111229 0.254017 0.140440 0.256086 0.120475 -0.209064 0.151710 0.276637 0.198463 0.055619 -0.127891 -0.147959 -0.059886 -0.199512 0.004850 -0.194890 -0.068905 0.209773 0.361845 0.084733 -0.132132 0.216577 -0.420852 -0.227669 0.385815 -0.020116 0.075131 0.062985 -0.233633 0.031598 0.082340 0.058479 0.366402 0.192384 -0.345254 0.245729 0.230002 0.092930 0.439952 -0.266180 -0.076535 -0.289513 -0.038140 0.007972 -0.168984 -0.305546 -0.082360 0.324974 0.060586 -0.048127 0.429116 0.491400 -0.177313 -0.099471 0.109885 -0.178306 0.277903 0.444464 -0.213453 0.115535 0.062023 -0.241353 -0.212604 0.069453 -0.055300 -0.128167 0.093294 0.059442 0.094030 0.108405 -0.049449 -0.007560 -0.028044 0.075992 -0.108396 -0.125805 -0.286776 0.157264 0.031163 0.181164 -0.329160 -0.170320 -0.002676 -0.023197 0.267430 -0.344685 0.003380 0.188365 -0.254608 -0.104959 -0.039753 0.104909 0.155897 -0.105545 0.315284 -0.197221 -0.062597 0.026564 -0.182680 0.020696 -0.082263 0.118998 0.070917 -0.114249 -0.111257 0.024375 0.205295 0.080956 0.412505 -0.075669 0.130221 -0.127596 -0.122370 
_mail1_2.8 -0.190284 -0.098886 -0.138798 0.066351 0.013761 -0.209403 -0.081947 -0.052501 0.076113 -0.135496 0.023021 0.000670 0.073681 0.072164 0.115798 -0.122149 -0.075740 0.028297 0.012999 0.065932 -0.088909 -0.034838 0.058752 -0.037334 0.028576 -0.173429 0.144668 -0.004727 0.029638 0.037022 -0.026088 -0.066115 0.127286 -0.074312 -0.153022 -0.050675 -0.054289 -0.067775 0.126212 0.071110 0.096414 0.153528 0.129426 0.004901 0.147561 0.103974 0.099458 -0.106225 -0.022441 -0.015354 0.007936 0.120306 -0.065091 0.010604 0.098134 0.194059 0.076922 -0.162348 -0.000157 -0.217025 0.039433 0.038458 -0.080378 0.001567 -0.129643 -0.163864 -0.134349 0.019626 0.097975 0.140056 0.011045 -0.099580 0.005307 0.072356 -0.030750 0.204844 -0.030196 -0.126137 -0.198936 -0.017575 -0.055625 -0.012930 -0.090067 0.140870 0.135660 -0.074188 0.126788 0.123304 0.087236 -0.045751 0.055758 -0.028421 -0.057199 0.099099 0.142252 -0.165109 0.110213 -0.039183 -0.005407 -0.095672 0.002833 0.035253 0.113626 -0.112269 0.001955 0.089284 0.083435 0.181031 -0.013311 -0.066384 0.159411 -0.099961 -0.113066 -0.039746 0.041625 0.037861 -0.047475 -0.092165 -0.290570 0.105770 -0.106327 0.228996 -0.080490 -0.070790 0.073031 -0.143799 -0.023923 0.006059 -0.031765 -0.011086 0.017579 0.070653 -0.106365 0.049127 -0.064569 -0.049167 0.029761 -0.135924 0.027517 -0.048502 -0.038527 -0.050145 -0.068105 0.142530 -0.005626 0.155640 -0.024283 0.076351 -0.105169 -0.043861 
_mail1_2.9 -0.096289 -0.103826 0.094227 0.267688 0.050425 -0.067398 -0.030585 -0.103069 -0.038185 -0.004224 0.195875 0.003995 0.127233 0.088169 0.095628 -0.124456 -0.089297 -0.057576 0.086945 -0.019839 -0.065649 -0.025896 -0.037594 -0.031670 -0.179182 -0.013085 0.123650 -0.061490 0.016479 0.075219 -0.014600 -0.087209 0.204712 -0.072126 0.006631 -0.016563 -0.030577 -0.122676 0.101296 -0.011998 0.100375 0.110613 0.115741 0.086052 0.071958 -0.011745 0.008638 -0.070392 0.036089 -0.020398 -0.122547 0.195041 -0.098973 -0.013684 -0.051507 0.153562 -0.039600 0.026802 -0.006383 -0.109388 0.027432 -0.074344 -0.096710 -0.063324 -0.077826 -0.170220 -0.262858 0.088437 0.098137 0.291078 0.085996 0.088447 -0.012496 0.108445 -0.063908 0.279415 -0.020128 -0.047847 -0.154081 0.000181 -0.110437 0.072376 0.032061 -0.000698 0.063124 0.016672 0.056584 -0.054336 0.150959 -0.008372 0.049489 -0.006017 -0.043328 0.225769 0.176371 -0.077920 0.082597 0.129473 0.051232 -0.158634 -0.034010 0.168611 0.008585 -0.022657 -0.145223 0.055381 0.252784 0.108932 0.043771 -0.038058 0.200430 -0.197955 -0.109002 -0.063449 0.101842 0.038573 0.017338 -0.222599 -0.079505 0.158148 -0.187332 0.105657 -0.044369 -0.134009 0.042145 -0.158518 0.010796 -0.020285 0.053784 0.171460 -0.073286 -0.069683 -0.138558 0.055249 -0.085652 -0.042376 -0.061958 0.032223 0.081794 -0.045958 0.039315 0.051023 -0.000996 0.119238 -0.089582 0.127213 0.010221 0.072381 -0.102079 -0.127290 
_mail1_3.10 -0.158514 -0.111793 0.021768 0.090700 0.091717 -0.374587 -0.076671 -0.121420 0.018704 -0.241603 -0.030376 0.115089 0.187009 0.080528 -0.062175 -0.505850 -0.420323 -0.150757 0.219534 0.164332 0.314614 0.044843 0.027662 -0.003930 -0.322761 -0.299715 0.143084 -0.346128 0.143080 -0.099583 0.023896 0.040238 0.418206 -0.367861 -0.387947 -0.052479 0.270827 -0.117581 0.300306 0.011789 -0.092835 0.155289 0.135685 -0.047092 -0.170787 0.201502 0.121860 0.112133 -0.320943 0.201962 0.001218 0.051617 -0.146330 -0.113082 -0.085383 0.167403 0.020173 0.096538 0.026697 -0.381379 -0.125240 0.086069 0.011094 0.152214 -0.177588 -0.011935 0.259084 -0.092426 0.176284 0.077720 0.042224 -0.065682 -0.041920 0.140460 -0.235871 0.633782 -0.197396 -0.421744 -0.120576 -0.492036 -0.184551 0.093579 -0.209763 -0.214947 0.409780 0.200860 0.275517 0.324859 0.094103 -0.099928 0.172494 0.106573 -0.086414 -0.208847 0.216981 -0.076361 0.074910 0.151243 -0.058705 -0.014954 -0.110364 0.068219 0.082659 -0.075106 -0.030199 0.213902 0.299603 -0.172512 -0.080328 0.042138 0.221118 0.150427 -0.073955 -0.127768 0.197298 0.148505 0.064299 -0.256338 0.214927 0.036193 0.185723 0.519234 0.084934 0.089988 0.041422 -0.240944 -0.236665 0.043443 -0.255612 0.002468 -0.213035 0.056726 -0.380337 0.193701 -0.282161 -0.155096 0.036858 -0.211470 0.308853 -0.030643 -0.156443 0.326097 -0.344526 0.385479 -0.028401 0.023239 -0.132900 -0.077858 -0.124944 -0.145476 
_mail1_3.11 -0.333194 0.057999 -0.199466 0.065873 0.198234 -0.078970 -0.047238 -0.020862 0.172498 -0.168310 0.199714 -0.144481 0.033241 0.037401 0.024067 -0.137097 -0.249498 -0.144268 0.015440 0.057512 -0.038227 -0.004466 -0.098451 0.226521 -0.148501 -0.306193 0.024392 -0.098397 0.088210 0.175758 0.035968 -0.158864 0.207438 -0.324594 -0.215907 -0.020016 0.134948 -0.202676 0.000524 0.094146 0.241944 0.171016 0.278516 -0.004260 0.104096 0.128181 -0.014597 0.101110 -0.110667 0.108408 -0.009565 0.132938 -0.161781 -0.018540 0.112180 0.167674 0.049454 -0.012805 0.212482 -0.126029 -0.009400 -0.074154 -0.138363 0.129773 -0.089450 -0.021772 0.005126 0.014090 0.122934 0.358495 0.135419 -0.180533 -0.066952 0.192058 -0.138240 0.433633 0.023171 -0.150967 -0.186800 0.050861 -0.089530 -0.009804 -0.207709 0.118566 0.149486 0.087096 0.029899 0.054208 0.157895 -0.022918 0.036365 -0.009278 0.010862 0.004028 0.388185 -0.183766 0.100782 0.159800 -0.160557 0.161710 -0.104516 0.331895 0.067316 -0.217321 -0.277466 0.049060 0.237531 0.085706 -0.054393 0.072574 0.040002 -0.135784 -0.062166 -0.249936 0.207846 0.029447 -0.005430 -0.251893 -0.034628 0.251698 -0.132536 0.337624 -0.046840 -0.142228 0.053346 -0.216336 -0.065728 -0.006504 -0.111528 -0.024024 -0.005538 0.053011 -0.087285 -0.038159 -0.101612 0.013439 -0.240017 -0.270368 0.225382 -0.160368 0.095740 -0.002052 -0.206387 0.120946 0.036396 0.109335 -0.127207 0.096107 -0.291536 -0.157843 
_mail1_3.12 -0.137226 -0.135127 -0.031543 0.250163 0.059955 -0.053760 -0.046008 0.009337 0.129384 -0.107222 0.154797 -0.008246 0.068892 0.146182 0.018697 -0.141106 -0.123754 -0.043929 -0.002477 0.004011 0.024606 -0.045324 0.106356 -0.011934 -0.248958 -0.056755 0.142188 0.014720 -0.028209 0.099615 0.014364 -0.152386 0.263861 -0.056628 -0.061271 -0.079415 -0.002564 -0.080105 0.033516 -0.038532 0.127282 0.095826 0.220112 -0.009257 0.060186 0.045026 0.009691 0.102622 0.006213 -0.016786 -0.027008 0.133556 -0.061339 -0.089931 -0.061944 0.124935 0.018681 -0.029046 0.042372 -0.019545 -0.005943 -0.083765 -0.141041 0.084973 -0.006401 -0.044116 -0.103824 0.056643 0.128223 0.243124 0.156274 -0.003904 -0.002008 0.100622 0.020602 0.246662 0.048160 -0.036253 -0.146859 0.064052 -0.104096 0.072587 -0.186489 0.031165 0.091976 0.000406 0.039478 -0.118886 0.151371 -0.017182 0.005806 0.026920 -0.143376 0.187326 0.193504 -0.074429 0.051245 0.145630 -0.069323 -0.113726 -0.003759 -0.001809 0.056809 0.020544 -0.054113 -0.044234 0.222698 0.020790 0.028714 -0.171811 0.265628 -0.124898 -0.008518 0.056611 0.022304 0.072736 -0.004567 -0.196424 0.005820 0.140349 -0.143657 0.189875 -0.015667 0.015094 0.087880 -0.057848 -0.069958 0.004987 -0.051410 0.145654 0.112970 0.039645 -0.098347 0.042367 -0.091338 0.024249 -0.205366 -0.046677 0.014003 -0.143658 -0.083425 -0.001083 0.027702 0.154653 0.083302 0.003145 -0.046961 -0.003425 0.004355 -0.099203 
_mail1_4.1 -0.381322 -0.029037 -0.116779 0.126479 0.081417 -0.305121 -0.106217 -0.282476 0.196384 -0.232114 0.150586 0.029959 0.128496 0.026580 0.097379 -0.145314 -0.063336 0.007280 0.108317 0.030451 -0.067919 -0.057765 0.054231 0.004684 -0.109450 -0.305526 0.247457 -0.075134 -0.059062 0.094532 -0.060190 -0.296443 0.197188 -0.073469 -0.233181 -0.044182 0.091621 -0.237957 -0.037352 0.089653 0.161542 0.286127 0.257262 -0.039155 0.136967 0.073696 0.142455 -0.108098 0.005904 -0.100450 -0.145381 -0.000128 -0.143446 0.004727 0.089874 0.206116 -0.012471 -0.161022 -0.013072 -0.318999 0.009066 -0.134172 -0.033082 -0.032377 -0.089961 -0.078160 -0.068373 0.025910 0.128513 0.291374 0.220652 -0.041082 -0.020734 0.307545 0.127988 0.346534 -0.093001 -0.124740 0.036874 -0.010836 -0.038339 0.089255 -0.138013 0.344072 0.162828 -0.079017 0.209377 0.083722 0.022413 -0.147996 0.175554 -0.043135 -0.198953 0.159774 0.201306 -0.130289 0.076984 0.013132 -0.035761 0.008701 0.069810 0.006841 0.232581 -0.128534 -0.099861 -0.049375 0.125716 0.228856 0.162924 0.017096 0.088809 -0.100734 -0.061616 -0.067432 0.193665 0.050018 -0.060078 -0.208705 -0.412011 0.102984 -0.086007 0.361766 0.015917 0.046856 0.216726 -0.013813 0.034774 -0.043841 0.077844 0.103471 -0.023256 0.114448 -0.241404 -0.014979 -0.119914 -0.007348 0.101757 -0.110773 0.049422 0.021229 0.009341 0.016492 -0.194580 0.187683 -0.086639 0.236111 -0.218135 0.106228 -0.052840 -0.055021 
